tree
version=v4
num_class=1
num_tree_per_iteration=1
label_index=0
max_feature_idx=77
objective=regression
feature_names=ingresos CPI ganancias_next ganancia_lag_1 ingresos_lag_1_x ganancia_lag_2 ingresos_lag_2_x ganancia_lag_3 ingresos_lag_3 ganancia_lag_4 ingresos_lag_4 n_ganancia_lags n_ingresos_lags ganancia_grow_1y ganancia_roll_mean_3 is_outlier_kde ganancias_lag_1 ingresos_lag_1_y ganancias_lag_2 ingresos_lag_2_y PIB_Crecimiento Tasa_Desempleo Tasa_Interes_DTF TRM_Promedio sector_ADMINPUBLICA sector_AGROPECUARIO sector_ALIMENTICIO sector_AMBIENTALES sector_COMERCIO sector_CONSTRUCCION sector_CULTURAL sector_EDUCATIVO sector_ENERGETICO sector_FINANCIERO sector_INMOBILIARIO sector_MANUFACTURA sector_MINERO sector_PROFESIONAL sector_SALUD sector_SERVICIOS sector_TIC sector_TRANSPORTE sector_ADMINPUBLICA_x_PIB sector_ADMINPUBLICA_x_DTF sector_AGROPECUARIO_x_PIB sector_AGROPECUARIO_x_DTF sector_ALIMENTICIO_x_PIB sector_ALIMENTICIO_x_DTF sector_AMBIENTALES_x_PIB sector_AMBIENTALES_x_DTF sector_COMERCIO_x_PIB sector_COMERCIO_x_DTF sector_CONSTRUCCION_x_PIB sector_CONSTRUCCION_x_DTF sector_CULTURAL_x_PIB sector_CULTURAL_x_DTF sector_EDUCATIVO_x_PIB sector_EDUCATIVO_x_DTF sector_ENERGETICO_x_PIB sector_ENERGETICO_x_DTF sector_FINANCIERO_x_PIB sector_FINANCIERO_x_DTF sector_INMOBILIARIO_x_PIB sector_INMOBILIARIO_x_DTF sector_MANUFACTURA_x_PIB sector_MANUFACTURA_x_DTF sector_MINERO_x_PIB sector_MINERO_x_DTF sector_PROFESIONAL_x_PIB sector_PROFESIONAL_x_DTF sector_SALUD_x_PIB sector_SALUD_x_DTF sector_SERVICIOS_x_PIB sector_SERVICIOS_x_DTF sector_TIC_x_PIB sector_TIC_x_DTF sector_TRANSPORTE_x_PIB sector_TRANSPORTE_x_DTF
feature_infos=[1:14482] [5.2000000000000002:13.119999999999999] [-143:1493] [-194.30604982206407:1544.2704626334521] [1:14482] [-194.30604982206407:1544.2704626334521] [1:14482] [-79.57295373665481:1544.2704626334521] [1:8495] none none [0:3] [0:3] [-inf:inf] [-194.30604982206407:1544.2704626334521] none [-194.30604982206407:1544.2704626334521] [1:14482] [-194.30604982206407:1544.2704626334521] [1:14482] [0.59999999999999998:10.699999999999999] [10.199999999999999:13.699999999999999] [3.2000000000000002:12.5] [3743:4325] [0:1] [0:1] [0:1] [0:1] [0:1] [0:1] [0:1] [0:1] [0:1] [0:1] [0:1] [0:1] [0:1] [0:1] [0:1] none [0:1] [0:1] [0:10.699999999999999] [0:12.5] [0:10.699999999999999] [0:12.5] [0:10.699999999999999] [0:12.5] [0:10.699999999999999] [0:12.5] [0:10.699999999999999] [0:12.5] [0:10.699999999999999] [0:12.5] [0:10.699999999999999] [0:12.5] [0:10.699999999999999] [0:12.5] [0:10.699999999999999] [0:12.5] [0:10.699999999999999] [0:12.5] [0:10.699999999999999] [0:12.5] [0:10.699999999999999] [0:12.5] [0:10.699999999999999] [0:12.5] [0:10.699999999999999] [0:12.5] [0:10.699999999999999] [0:12.5] none none [0:10.699999999999999] [0:12.5] [0:10.699999999999999] [0:12.5]
tree_sizes=2834 2886 2911 2895 2914 2895 2891 2904 2901 2903 2922 2903 2908 2898 2905 2916 2871 2926 2916 2908 2907 2929 2893 2931 2940 2920 2918 2933 2916 2941 2934 2923 2906 2964 2939 2942 2939 2914 2918 2923 2919 2927 2938 2956 2938 2940 2948 2942 2950 2982 2962 2981 2949 2949 2908 2969 2954 2959 2928 2940 2949 2984 2952 2940 2939 2985 2948 2945 2961 2964 2943 2938 2953 2919 2950 2961 2949 2952 2967 2962 2912 2927 2952 2953 2936 2976 2951 2970 2932 2946 2954 2922 2986 2916 2988 2927 2964 2938 2947 2920 2932 2934 2939 2949 2961 2970 2942 2963

Tree=0
num_leaves=31
num_cat=0
split_feature=60 18 13 3 2 13 14 0 62 16 2 3 0 14 14 2 0 37 2 2 0 34 4 3 1 1 0 2 13 16
split_gain=42.122 38.8664 24.8539 30.3274 13.4434 12.1206 11.8879 8.64897 8.59132 7.78498 7.64952 7.38248 10.4258 6.51284 5.45429 4.63389 3.89798 3.86299 3.28647 2.99338 3.70671 3.60007 2.60253 4.23346 2.59709 2.34746 2.9813 2.04542 2.03207 2.01016
threshold=1.0500000000000003 8.5234571651766355 -0.52641909814323595 -1.0000000180025095e-35 1.0000000180025095e-35 -25.092307692307688 0.94097659745771611 4.5000000000000009 9.0000000000000018 1.0229782795435025 0.67651387720773781 4.6912160402742824 31.500000000000004 0.51091360404339115 6.6739812082284535 10.195542472666109 5.5000000000000009 1.0000000180025095e-35 1.1548570227081585 -3.0853658536585362 13.500000000000002 1.0000000180025095e-35 9.5000000000000018 1.0229782795435025 11.200000000000001 7.4500000000000002 5.5000000000000009 35.335365853658544 0.28516371664500345 -6.6005031292183087
decision_type=2 10 10 10 10 8 8 2 2 8 8 10 2 10 8 10 2 2 10 8 2 2 10 10 2 2 2 10 10 8
left_child=2 6 4 16 5 13 -2 9 14 -5 -8 22 28 25 -6 24 -4 27 -19 20 -7 -21 23 -9 -12 26 -1 -16 -13 -18
right_child=1 -3 3 7 8 19 10 11 -10 -11 15 12 -14 -15 17 -17 29 18 -20 21 -22 -23 -24 -25 -26 -27 -28 -29 -30 -31
leaf_value=0.002385734765046086 0.026337898037390298 0.10920747344968471 0.0053251486956937336 0.035474450590519076 0.02734088251217295 -7.3877905530202875e-05 0.031574891841929971 0.031663859162619643 0.049706349752183729 0.05070535447653457 0.050144569041204498 0.05061615357007905 0.035228109591324039 -0.0075554260293014437 0.03067229855720835 0.067635201266093986 0.0050544807792122226 0.034445515687764432 0.052303767849939495 0.026869606416293025 0.02307421884804715 0.032835003120051276 0.0296320739984848 0.041966904408570108 0.038722882100995865 0.022539304366334972 0.019786539407284739 0.043619466117680097 0.072637175216611199 0.02059290411939927
leaf_weight=40 123 21 65 521 1369 21 86 1065 55 100 152 20 250 25 1911 29 23 80 38 20978 98 256 1891 110 74 179 64 31 22 219
leaf_count=40 123 21 65 521 1369 21 86 1065 55 100 152 20 250 25 1911 29 23 80 38 20978 98 256 1891 110 74 179 64 31 22 219
internal_value=0.0280595 0.0426747 0.0278187 0.0313381 0.0272188 0.0267552 0.0396636 0.0325063 0.0301015 0.0379271 0.0444702 0.0315039 0.0391006 0.0169072 0.0297871 0.0488192 0.0161962 0.0314127 0.0401965 0.0268972 0.0189893 0.0269415 0.0307804 0.0326284 0.0464047 0.0190682 0.0130939 0.030879 0.062151 0.0191161
internal_weight=29916 485 29431 4286 25145 21661 464 3979 3484 621 341 3358 292 308 3429 255 307 2060 118 21353 119 21234 3066 1175 226 283 104 1942 42 242
internal_count=29916 485 29431 4286 25145 21661 464 3979 3484 621 341 3358 292 308 3429 255 307 2060 118 21353 119 21234 3066 1175 226 283 104 1942 42 242
is_linear=0
shrinkage=1


Tree=1
num_leaves=31
num_cat=0
split_feature=60 18 13 3 13 2 14 0 16 5 62 2 3 0 16 2 0 37 2 3 13 34 2 19 2 20 0 3 4 4
split_gain=38.0151 35.0769 22.5341 27.6476 12.0121 11.3777 10.7289 9.5681 10.5707 9.28392 7.5653 6.90369 6.69338 9.04571 4.77802 4.18209 4.04716 3.48669 3.43125 3.12625 2.87288 2.84583 2.89536 2.51338 2.47996 2.43002 2.37931 2.29845 2.19122 2.13501
threshold=1.0500000000000003 8.5234571651766355 -0.72564872275941683 -1.0000000180025095e-35 -25.092307692307688 1.0000000180025095e-35 0.94097659745771611 5.5000000000000009 1.0229782795435025 -0.85897491537192938 9.0000000000000018 0.67651387720773781 4.6912160402742824 25.500000000000004 -7.8858284272497903 10.195542472666109 5.5000000000000009 1.0000000180025095e-35 1.1548570227081585 -1.6332001682085786 -0.16703518414870641 1.0000000180025095e-35 -13.742115222876366 7.5000000000000009 4.6194280908326339 9.0000000000000018 5.5000000000000009 -0.47834314550042051 5.5000000000000009 9.5000000000000018
decision_type=2 10 10 10 8 10 8 2 8 8 2 8 10 2 10 10 2 2 10 10 10 2 10 8 8 2 2 10 10 10
left_child=2 6 4 16 9 21 -2 8 -5 -1 14 -8 24 20 17 23 19 -7 -19 -4 -14 -6 27 -13 -9 -25 28 -23 -11 -26
right_child=1 -3 3 7 5 10 11 12 -10 26 -12 15 13 -15 -16 -17 -18 18 -20 -21 -22 22 -24 25 29 -27 -28 -29 -30 -31
leaf_value=-0.043278949102386832 -0.0016355651533713836 0.077090533272851092 -0.037738577499985694 0.0060873101122649632 -0.0012021845779771419 0.0026716031134557026 0.0033395788350770641 0.00084923595540832087 0.020970518844468253 -0.010170963756917489 0.020564464198594742 0.0334843441166661 0.017566373005509377 0.006045939141177 -0.0012779879034952651 0.03759687333528338 -0.0078064145194038648 0.0059980330010286622 0.024994921311736109 -0.014762539834829801 0.042052232117756556 0.011134489757088266 -0.0035898135308130292 0.011037608906547777 0.0064986803165469585 0.022088564145595357 -0.0049970294873643243 -0.0027175842617184688 -0.026781468293987788 0.0023104110712004588
leaf_weight=20 123 21 20 807 20795 1885 86 2006 140 84 55 22 25 325 858 29 284 79 34 57 23 129 81 118 434 86 207 39 26 1018
leaf_count=20 123 21 20 807 20795 1885 86 2006 140 84 55 22 25 325 858 29 284 79 34 57 23 129 81 118 434 86 207 39 26 1018
internal_value=7.1491e-12 0.0138844 -0.000228805 0.00277921 -0.000865153 -0.000733278 0.0110238 0.00378728 0.00828757 -0.0102393 0.00219656 0.0155901 0.00267483 0.00903831 0.00184283 0.0197216 -0.010563 0.003183 0.0117139 -0.0207303 0.0292992 -0.00113856 0.00417505 0.0174279 0.00198843 0.0156963 -0.00815478 0.00791883 -0.0140971 0.00356228
internal_weight=29916 485 29431 5139 24292 23955 464 4778 947 337 2911 341 3831 373 2856 255 361 1998 113 77 48 21044 249 226 3458 204 317 168 110 1452
internal_count=29916 485 29431 5139 24292 23955 464 4778 947 337 2911 341 3831 373 2856 255 361 1998 113 77 48 21044 249 226 3458 204 317 168 110 1452
is_linear=0
shrinkage=0.05


Tree=2
num_leaves=31
num_cat=0
split_feature=60 18 13 3 13 14 5 62 0 16 3 0 14 37 0 3 13 16 22 3 62 13 4 0 4 3 0 20 13 4
split_gain=34.3087 31.6569 20.3647 24.8799 10.986 9.78222 8.37874 7.20444 7.13487 6.32184 6.09267 8.70736 3.89392 4.00845 3.20059 6.84796 2.95384 3.17713 2.74182 2.69958 2.51104 2.41088 2.40684 2.2702 2.16862 3.34297 2.14733 2.02374 1.9798 1.97757
threshold=1.0500000000000003 8.5234571651766355 -0.52641909814323595 -1.0000000180025095e-35 -25.092307692307688 0.72674355524694045 -0.85897491537192938 9.0000000000000018 4.5000000000000009 1.0229782795435025 4.6912160402742824 37.500000000000007 0.92491428695425759 1.0000000180025095e-35 13.500000000000002 -1.9161205624511759 -1.4587091069849689 3.4645710681244752 9.4000000000000021 43.024911032028477 1.0000000180025095e-35 0.41379310344827597 9.5000000000000018 4.5000000000000009 8.5000000000000018 1.0229782795435025 5.5000000000000009 4.4000000000000012 2.6014257294429712 5.5000000000000009
decision_type=2 10 10 10 8 8 8 2 2 8 10 2 8 2 2 10 8 8 2 10 2 10 8 2 10 10 2 2 8 10
left_child=2 5 4 14 6 28 -1 12 9 -5 24 21 -6 16 15 -4 17 -14 22 20 -18 -12 -7 -15 25 -10 29 -25 -2 -8
right_child=1 -3 3 8 7 18 26 -9 10 -11 11 -13 13 23 -16 -17 19 -19 -20 -21 -22 -23 -24 27 -26 -27 -28 -29 -30 -31
leaf_value=-0.041114999926649035 -0.015588878005239946 0.073236004773172589 -0.043512233868241317 0.0067397939480998469 -0.0012932716970894126 0.028966221867783651 -0.009662415583928427 0.011101148541157062 0.0034385240516170666 0.020464992102235555 0.020055176527239385 0.0059982609066863311 -0.0042484962524487139 0.0016409400719425923 -0.0062234270428361506 -0.011812639994465787 -0.00030404739214582948 -0.02601835991122893 0.0084436396285082396 0.018175160588871222 0.0060258637768152001 0.042184570133686067 0.015078771851129652 0.017384771939056614 0.0015163826273740743 0.013428470658381347 -0.0047471780338940997 0.0055030175540940205 0.00055602756092103863 -0.025442394936600554
leaf_weight=20 28 21 20 521 13050 37 84 130 933 100 32 240 83 412 172 115 10712 21 141 20 159 20 199 45 2041 92 207 176 59 26
leaf_count=20 28 21 20 521 13050 37 84 130 933 100 32 240 83 412 172 115 10712 21 141 20 159 20 199 45 2041 92 207 176 59 26
internal_value=1.00487e-12 0.0131902 -0.000217364 0.00296835 -0.000760374 0.0104726 -0.00972733 -0.000638564 0.00402651 0.00894997 0.003116 0.0100173 -0.000700407 -3.50394e-05 -0.0107463 -0.0165089 -0.000257785 -0.00864433 0.0139602 -0.000177701 -0.000211466 0.0285665 0.017256 0.00383399 0.00245874 0.00433518 -0.00774704 0.00792238 -0.00464003 -0.0133922
internal_weight=29916 485 29431 4286 25145 464 337 24808 3979 621 3358 292 24678 11628 307 135 10995 104 377 10891 10871 52 236 633 3066 1025 317 221 87 110
internal_count=29916 485 29431 4286 25145 464 337 24808 3979 621 3358 292 24678 11628 307 135 10995 104 377 10891 10871 52 236 633 3066 1025 317 221 87 110
is_linear=0
shrinkage=0.05


Tree=3
num_leaves=31
num_cat=0
split_feature=60 18 13 16 2 2 13 0 16 14 16 3 0 14 63 3 13 0 2 13 37 2 2 0 63 3 13 2 1 0
split_gain=30.9636 28.5703 18.428 22.6733 10.4426 9.20658 8.82087 7.93042 8.63263 5.87154 5.62035 5.47243 7.53229 5.2517 5.04758 3.99552 3.77862 3.55851 3.45457 3.18903 3.02991 3.08051 2.82597 3.24899 2.83422 2.61557 2.34576 2.17475 2.12551 2.35197
threshold=1.0500000000000003 8.5234571651766355 -0.72564872275941683 -1.0000000180025095e-35 1.0000000180025095e-35 1.1548570227081585 -25.092307692307688 5.5000000000000009 1.0229782795435025 0.51091360404339115 -7.8858284272497903 4.6912160402742824 25.500000000000004 0.50044047501464106 1.0000000180025095e-35 0.8589749153719296 0.12031019746536999 5.5000000000000009 6.7309714045416333 2.6014257294429712 1.0000000180025095e-35 1.1548570227081585 -3.0853658536585362 13.500000000000002 1.0000000180025095e-35 -1.6332001682085786 -0.16703518414870641 4.6194280908326339 7.4500000000000002 5.5000000000000009
decision_type=2 10 10 8 10 10 8 2 8 10 10 10 2 8 2 10 10 2 10 8 2 10 8 2 2 10 10 8 2 2
left_child=2 5 4 17 6 13 9 8 -5 28 14 27 26 19 20 18 -15 25 -7 -2 -6 -22 23 -8 -24 -4 -13 -9 29 -1
right_child=1 -3 3 7 10 15 22 11 -10 -11 -12 12 -14 16 -16 -17 -18 -19 -20 -21 21 -23 24 -25 -26 -27 -28 -29 -30 -31
leaf_value=-0.022710980121046304 -0.022574962298385799 0.069574206331301305 -0.034732217844575641 0.0055240811789327542 0.0024981524289762122 0.021654616057341442 -0.026727071712680517 0.00072340785338776824 0.018933174022017642 -0.032793975445092653 -0.0013167987882529888 0.016051363907754423 0.0054342705390344444 0.0064811786956852305 0.016546765010489125 0.011456427855655024 0.021442344710130085 -0.0070252798717755291 0.045764727580050631 0.00052822616929977626 0.0055134216323494915 0.023513227690230398 -0.0010649946947670335 -0.0048627673353335375 0.004344546628393689 -0.013667719884376442 0.038177144009134051 0.0032635102735050197 -0.004212161864273708 -0.0072555052494863055
leaf_weight=40 20 21 20 807 1870 39 21 2006 141 25 886 25 325 224 71 46 52 283 24 59 79 34 20689 89 245 56 23 1453 179 64
leaf_count=40 20 21 20 807 1870 39 21 2006 141 25 886 25 325 224 71 46 52 283 24 59 79 34 20689 89 245 56 23 1453 179 64
internal_value=1.03774e-11 0.0125307 -0.000206496 0.00251369 -0.000781955 0.00994899 -0.00116663 0.00342386 0.00751847 -0.00956694 0.0020118 0.00241089 0.00816487 0.00604634 0.0034476 0.0226594 0.00929995 -0.00960499 0.0308394 -0.00532068 0.0029786 0.0109293 -0.00104369 -0.00903686 -0.00100168 -0.019211 0.0266533 0.00179041 -0.00751508 -0.0131999
internal_weight=29916 485 29431 5139 24292 464 21352 4780 948 308 2940 3832 373 355 2054 109 276 359 63 79 1983 113 21044 110 20934 76 48 3459 283 104
internal_count=29916 485 29431 5139 24292 464 21352 4780 948 308 2940 3832 373 355 2054 109 276 359 63 79 1983 113 21044 110 20934 76 48 3459 283 104
is_linear=0
shrinkage=0.05


Tree=4
num_leaves=31
num_cat=0
split_feature=33 18 13 16 2 16 13 2 62 16 0 17 0 16 13 68 2 16 0 68 13 2 2 0 34 2 4 2 16 4
split_gain=27.8201 22.5165 15.1911 17.8466 10.347 8.80609 8.02121 7.2975 5.986 5.66028 5.46084 14.971 5.16248 5.2659 4.47658 4.4495 4.14596 3.50936 3.08184 2.86603 2.67455 2.37703 2.32299 3.79478 2.17069 1.88146 1.79659 1.78692 1.78438 1.74517
threshold=1.0000000180025095e-35 13.016502473743602 -0.22562695924764883 -1.0000000180025095e-35 1.0000000180025095e-35 1.0229782795435025 -25.092307692307688 1.0000000180025095e-35 9.0000000000000018 5.5501909556462126 5.5000000000000009 6.5000000000000009 5.5000000000000009 1.0229782795435025 -0.72564872275941683 1.0000000180025095e-35 10.195542472666109 7.2093145500420537 5.5000000000000009 1.0000000180025095e-35 0.77592838196286473 1.1548570227081585 -3.0853658536585362 12.500000000000002 1.0000000180025095e-35 -2.9008620689655169 1.0000000180025095e-35 35.335365853658544 14.616799831791424 12.500000000000002
decision_type=2 10 10 8 10 8 8 8 2 8 2 8 2 10 8 2 10 8 2 2 10 10 8 2 2 10 10 10 10 10
left_child=2 5 4 18 6 29 10 -7 17 12 11 -1 13 -5 -9 -11 20 -6 -4 27 -16 -21 23 -8 28 26 -26 -19 -24 -2
right_child=1 -3 3 9 8 7 22 14 -10 15 -12 -13 -14 -15 16 -17 -18 19 -20 21 -22 -23 24 -25 25 -27 -28 -29 -30 -31
leaf_value=-0.0086427721225967018 0.0011308903589968306 0.053530817812886738 -0.020182176173797677 0.0056050205057534231 -0.00028426513280437586 -0.0025206615148179942 -0.027711069770157339 -0.0073826108255889275 0.018153844584118239 0.0084948514422995228 -0.004015963591068753 -0.053843881210069292 0.0020746462482814495 0.021566313738003374 0.01330628633955536 0.029111695196479562 0.035377003625035285 0.00220049801551612 -0.0069941317394621814 0.0053140748091391292 0.027391965408475161 0.020120252300871583 -0.00099594088844282935 -0.0039656190070947459 0.0096850882115678532 -0.002651655033412503 -0.0014250152415650735 0.013442647855521905 0.01394591844175011 -0.013877340514128181
leaf_weight=90 162 29 56 669 1534 67 20 20 55 205 194 23 2641 56 248 30 28 1947 212 80 39 41 21026 106 127 82 51 36 20 22
leaf_count=90 162 29 56 669 1534 67 20 20 55 205 194 23 2641 56 248 30 28 1947 212 80 39 41 21026 106 127 82 51 36 20 22
internal_value=-1.3085e-11 0.0105245 -0.000220899 0.00269797 -0.00066495 0.00839619 -0.00108063 0.0125429 0.00178196 0.00362438 -0.00910539 -0.017843 0.0031006 0.00683789 0.0155557 0.0111268 0.0170121 0.00153444 -0.00974984 0.00286044 0.0152204 0.010331 -0.000965678 -0.00773474 -0.000925647 0.00361498 0.00650186 0.00240459 -0.000981742 -0.000663572
internal_weight=29916 615 29301 3869 25432 586 21739 402 3693 3601 307 113 3366 725 335 235 315 3638 268 2104 287 121 21432 126 21306 260 178 1983 21046 184
internal_count=29916 615 29301 3869 25432 586 21739 402 3693 3601 307 113 3366 725 335 235 315 3638 268 2104 287 121 21432 126 21306 260 178 1983 21046 184
is_linear=0
shrinkage=0.05


Tree=5
num_leaves=31
num_cat=0
split_feature=60 18 13 3 13 16 14 0 16 62 3 0 3 13 3 68 0 0 1 13 3 34 1 0 4 18 13 3 16 1
split_gain=25.523 24.3879 15.122 18.7703 8.10865 18.4225 7.57233 6.65728 7.4102 5.42394 4.36669 6.4863 4.15673 3.71889 3.15955 2.94599 3.09665 2.91132 2.86972 2.81324 2.47282 1.99673 1.98256 1.98135 2.81395 1.61029 1.59336 1.6865 1.5381 1.49548
threshold=1.0500000000000003 8.5234571651766355 -0.72564872275941683 -1.0000000180025095e-35 -3.7522546419098139 1.0229782795435025 0.50044047501464106 5.5000000000000009 1.0229782795435025 9.0000000000000018 4.6912160402742824 46.500000000000007 -1.0000000180025095e-35 0.43884615384615372 -1.0000000180025095e-35 1.0500000000000003 5.5000000000000009 5.5000000000000009 5.410000000000001 2.6014257294429712 -1.6332001682085786 1.0000000180025095e-35 11.200000000000001 5.5000000000000009 6.5000000000000009 1.9161205624511763 0.02391450013401231 0.67651387720773781 -6.6005031292183087 7.4500000000000002
decision_type=2 10 10 10 8 8 8 2 8 2 10 2 10 10 10 2 2 2 2 8 10 2 2 2 10 10 10 10 8 2
left_child=2 6 4 17 5 12 19 8 -5 14 29 13 -1 -12 15 21 -17 20 -18 -2 -4 -6 -8 24 -14 26 -10 -28 -19 -9
right_child=1 -3 3 7 9 -7 22 10 25 -11 11 -13 23 -15 -16 16 18 28 -20 -21 -22 -23 -24 -25 -26 -27 27 -29 -30 -31
leaf_value=0.0096267836079711021 -0.021315156002528965 0.064079684196483522 -0.032466860543936493 0.0050189088487621429 -0.00026249378900817442 -0.054426948858890684 0.014612333202561875 0.0030761740301105778 0.0083122442837576475 0.0095976083553754379 0.013730738620305882 0.0039287652160784727 -0.0088182091518926135 0.038733907043933868 -0.0011541881783809381 0.0015359570993214544 0.02797003323212266 -0.017290061103693886 0.0072564768440583176 0.00038414340766178349 -0.012032571974161424 0.0062000229800781934 0.0071648601497067733 -0.0044247522603812787 -0.029434301285073163 0.030245133205538705 0.0089737860688372788 0.025497183980459866 -0.0051379371567700045 0.00087993068519972835
leaf_weight=42 20 21 20 807 9799 20 244 1173 49 130 58 295 96 20 13306 394 20 29 102 59 57 121 141 242 20 21 23 47 255 2285
leaf_count=42 20 21 20 807 9799 20 244 1173 49 130 58 295 96 20 13306 394 20 29 102 59 57 121 141 242 20 21 23 47 255 2285
internal_value=-1.17529e-11 0.0113767 -0.000187479 0.00227666 -0.000708769 -0.00759581 0.00899141 0.00310727 0.00686111 -0.0005876 0.00217934 0.00731916 -0.00525425 0.0201418 -0.000643369 7.92972e-06 0.00369133 -0.00871684 0.0106521 -0.00510935 -0.0173402 -0.000183667 0.0118848 -0.00700007 -0.0123727 0.0174801 0.0152274 0.0200681 -0.00637882 0.00162493
internal_weight=29916 485 29431 5139 24292 420 464 4778 947 23872 3831 373 400 78 23742 10436 516 361 122 79 77 9920 385 358 116 140 119 70 284 3458
internal_count=29916 485 29431 5139 24292 420 464 4778 947 23872 3831 373 400 78 23742 10436 516 361 122 79 77 9920 385 358 116 140 119 70 284 3458
is_linear=0
shrinkage=0.05


Tree=6
num_leaves=31
num_cat=0
split_feature=60 18 13 16 2 2 13 14 62 0 16 0 14 14 14 4 13 2 13 13 0 16 37 2 0 2 14 0 1 5
split_gain=23.0345 22.01 13.6671 16.917 8.22764 7.63204 6.55893 5.33232 5.11968 4.92195 4.19478 6.68766 4.08388 3.93742 3.62311 3.34415 3.15551 2.89807 2.55156 2.53895 2.43086 5.8727 2.30941 2.16974 2.85589 2.1505 1.95924 2.11032 1.89496 2.06215
threshold=1.0500000000000003 8.5234571651766355 -0.52641909814323595 -1.0000000180025095e-35 1.0000000180025095e-35 1.1548570227081585 -25.092307692307688 0.51091360404339115 9.0000000000000018 4.5000000000000009 2.1115433137089998 20.500000000000004 0.94712915545525578 0.50044047501464106 6.6739812082284535 1.0000000180025095e-35 0.12031019746536999 6.7309714045416333 0.43884615384615372 2.6014257294429712 13.500000000000002 -1.9161205624511759 1.0000000180025095e-35 -3.0853658536585362 27.500000000000004 1.1548570227081585 14.836005989063452 168.50000000000003 7.4500000000000002 -1.7179498307438588
decision_type=2 10 10 8 10 10 8 10 2 2 10 2 10 8 8 10 10 10 10 8 2 10 2 8 2 10 10 2 2 10
left_child=2 5 4 20 6 13 7 28 14 12 -11 18 -5 19 -6 17 -15 -7 -12 -2 21 -4 -16 24 -8 -24 -13 -28 29 -1
right_child=1 -3 3 9 8 15 23 -9 -10 10 11 26 -14 16 22 -17 -18 -19 -20 -21 -22 -23 25 -25 -26 -27 27 -29 -30 -31
leaf_value=-0.025639604901274045 -0.020249398041050883 0.060875699633643747 -0.038950088750571016 0.0058638762672423225 -0.00060420283181772253 0.019185502406281349 -0.018297564788017331 -0.030364866040647032 0.016766271889209747 0.0017139576993770438 0.011869559488109043 0.0022873523767940446 0.0181653686061308 0.0052298787867292576 0.0023017580216017977 0.0098652481759452949 0.018901938901259342 0.041268423199653625 0.028324088513066892 0.00036493621774459796 -0.0049657208602816513 -0.0095753575029799299 0.0048539414576953283 -0.00084344992623749688 -0.0019980423029315156 0.019299802617905173 0.018636368450132154 0.0046039457674605481 -0.0031560359013464573 -0.0081008865833226366
leaf_weight=21 20 21 20 545 1369 39 41 25 55 2751 62 392 77 224 1942 46 52 24 38 59 171 114 80 21234 78 38 42 74 179 83
leaf_count=21 20 21 20 545 1369 39 41 25 55 2751 62 392 77 224 1942 46 52 24 38 59 171 114 80 21234 78 38 42 74 179 83
internal_value=-5.08115e-12 0.0108078 -0.000178105 0.00243169 -0.000622947 0.00854184 -0.000985676 -0.00823006 0.00163224 0.00330116 0.00254462 0.00630311 0.00738673 0.00498855 0.00138949 0.0201145 0.00780577 0.027598 0.0181223 -0.00485388 -0.00891715 -0.0139596 0.00271443 -0.000881181 -0.00761384 0.009506 0.0039765 0.00968465 -0.00627468 -0.0116424
internal_weight=29916 485 29431 4286 25145 464 21661 308 3484 3981 3359 608 622 355 3429 109 276 63 100 79 305 134 2060 21353 119 118 508 116 283 104
internal_count=29916 485 29431 4286 25145 464 21661 308 3484 3981 3359 608 622 355 3429 109 276 63 100 79 305 134 2060 21353 119 118 508 116 283 104
is_linear=0
shrinkage=0.05


Tree=7
num_leaves=31
num_cat=0
split_feature=60 18 13 3 13 41 14 0 16 62 18 3 3 68 0 1 0 3 0 3 19 34 0 3 13 4 1 3 3 0
split_gain=20.7886 19.8641 12.4401 15.4053 6.70292 17.4441 6.40331 5.60318 7.44072 4.55392 3.84232 3.59521 2.69557 2.55068 2.69033 2.66208 2.52237 2.28347 2.75917 2.10152 2.09399 1.81077 1.77605 1.74596 1.8052 1.6038 1.58573 1.46572 1.46092 4.1454
threshold=1.0500000000000003 8.5234571651766355 -0.72564872275941683 -1.0000000180025095e-35 -3.7522546419098139 1.0000000180025095e-35 0.94097659745771611 6.5000000000000009 1.0229782795435025 9.0000000000000018 13.673780487804882 -1.0000000180025095e-35 -1.0000000180025095e-35 1.0500000000000003 5.5000000000000009 5.410000000000001 5.5000000000000009 1.0000000180025095e-35 47.500000000000007 -1.6332001682085786 7.5000000000000009 1.0000000180025095e-35 57.500000000000007 2.7887624248374041 1.0000000180025095e-35 7.5000000000000009 7.4500000000000002 0.67651387720773781 2.1115433137089998 18.500000000000004
decision_type=2 10 10 10 8 2 8 2 8 2 10 10 10 2 2 2 2 10 2 10 8 2 2 10 10 10 2 10 10 2
left_child=2 6 4 16 5 11 25 8 26 12 28 -1 13 21 -15 -16 19 -13 -19 -4 -8 -6 -12 24 -10 -2 -5 -26 -9 -30
right_child=1 -3 3 7 9 -7 20 10 23 -11 22 17 -14 14 15 -17 -18 18 -20 -21 -22 -23 -24 -25 27 -27 -28 -29 29 -31
leaf_value=0.0096528490126365808 0.0010729167598183267 0.05783191570746047 -0.029865172486752273 0.0070865571510298131 -0.00023471092075899336 -0.051320376608609442 0.026562272825024349 0.0010548631230469418 0.0064502515825787914 0.0088008134439587597 0.021434440217431516 -0.0047183726290370848 -0.0010547695552317355 0.0014370106636938937 0.02661370306275785 0.0066635828748272327 -0.005717433638235403 -0.029914044278363389 -0.0039647118549328304 -0.011027415184990357 0.010613472518973859 0.0059195162378220768 0.0070268327143360471 0.029110121123847511 0.0077251968327909709 -0.013570219733873788 0.0028675947054176676 0.021971107480617671 0.013389542504174122 0.0020595803557937561
leaf_weight=40 100 21 20 326 9799 21 22 2818 54 130 31 318 13306 394 20 102 284 21 20 57 319 121 69 21 25 23 703 65 94 572
leaf_count=40 100 21 20 326 9799 21 22 2818 54 130 31 318 13306 394 20 102 284 21 20 57 319 121 69 21 25 23 703 65 94 572
internal_value=-9.66504e-12 0.0102675 -0.0001692 0.00206578 -0.000642011 -0.00690368 0.00811475 0.00281826 0.00578477 -0.000531844 0.00182997 -0.00456596 -0.000582946 1.86346e-05 0.00344601 0.00993409 -0.00789368 -0.00615023 -0.0172558 -0.0159203 0.0116424 -0.000159644 0.0114932 0.0156417 0.0136775 -0.00166523 0.00420421 0.0180139 0.00155261 0.0036587
internal_weight=29916 485 29431 5139 24292 420 464 4778 1194 23872 3584 399 23742 10436 516 122 361 359 41 77 341 9920 100 165 144 123 1029 90 3484 666
internal_count=29916 485 29431 5139 24292 420 464 4778 1194 23872 3584 399 23742 10436 516 122 361 359 41 77 341 9920 100 165 144 123 1029 90 3484 666
is_linear=0
shrinkage=0.05


Tree=8
num_leaves=31
num_cat=0
split_feature=60 18 13 16 2 2 13 16 0 14 62 14 11 2 14 0 0 14 13 2 37 2 0 2 14 17 2 13 1 5
split_gain=18.7617 17.9273 11.2399 12.9261 7.66806 6.81035 5.42923 5.17247 7.05675 4.72273 4.33484 3.77611 3.55024 3.21802 3.19203 3.1471 2.65083 2.52277 2.21509 2.10348 2.03857 2.0323 4.19119 1.89481 1.83076 1.89691 1.77253 1.67339 1.67302 1.74331
threshold=1.0500000000000003 8.5234571651766355 -0.23206412489949077 -0.47834314550042051 1.0000000180025095e-35 3.4645710681244752 -25.092307692307688 1.6332001682085791 19.500000000000004 0.51091360404339115 9.0000000000000018 0.50044047501464106 1.0000000180025095e-35 1.0000000180025095e-35 7.0511597637298022 7.5000000000000009 5.5000000000000009 4.956031377484595 2.6014257294429712 1.1548570227081585 1.0000000180025095e-35 -3.0853658536585362 11.500000000000002 1.1548570227081585 14.530056059549432 168.50000000000003 8.5623423044575304 0.89412024756852382 7.4500000000000002 -1.7179498307438588
decision_type=2 10 10 8 10 10 8 8 2 10 2 8 2 8 8 2 2 10 8 8 2 8 2 10 10 10 10 10 2 10
left_child=2 5 4 16 6 11 9 15 17 28 14 18 -7 -13 -6 19 -4 -9 -2 -5 26 22 -8 -22 -10 -26 -16 -15 29 -1
right_child=1 -3 3 7 10 12 21 8 24 -11 -12 13 -14 27 20 -17 -18 -19 -20 -21 23 -23 -24 -25 25 -27 -28 -29 -30 -31
leaf_value=-0.023566921075273837 -0.018924495894461872 0.054940320303042738 -0.020057548499769637 0.0019540738493146917 -0.00037893509247330262 0.033170400808254882 -0.028123664227896375 0.013418605579204882 0.0024666428090148341 -0.028325020633637905 0.015487917875447735 -0.0023582899564644324 0.0098809675220400111 0.0090001528082227222 0.0018310917893329809 0.00095415330151393915 -0.0065264602369702399 0.031218280027741976 0.00033027189408855171 0.0062899628811109573 0.0044319763384555698 -0.00077046127260053314 -0.0031872814295162825 0.017651280453542202 0.019915532244538722 0.0049461392425316376 0.0078485120799628404 0.024065861119888725 -0.0027232635196548106 -0.0074409614417404613
leaf_weight=21 20 21 45 521 1548 36 20 148 386 25 55 64 30 235 1860 1928 185 23 59 604 80 21349 107 41 33 59 131 20 179 83
leaf_count=21 20 21 45 521 1548 36 20 148 386 25 55 64 30 235 1860 1928 185 23 59 604 80 21349 107 41 33 59 131 20 179 83
internal_value=2.89916e-12 0.00975408 -0.00016074 0.00232756 -0.000544441 0.00770901 -0.000902506 0.00304213 0.00709574 -0.00749381 0.00155518 0.00524226 0.0225843 0.0076659 0.00134581 0.00218042 -0.00917385 0.0158127 -0.00454435 0.00428196 0.00260997 -0.000807976 -0.00711427 0.00891124 0.00397732 0.0103156 0.00222701 0.0101818 -0.0056536 -0.0106972
internal_weight=29916 485 29431 3932 25499 464 21784 3702 649 308 3715 398 66 319 3660 3053 230 171 79 1125 2112 21476 127 121 478 92 1991 255 283 104
internal_count=29916 485 29431 3932 25499 464 21784 3702 649 308 3715 398 66 319 3660 3053 230 171 79 1125 2112 21476 127 121 478 92 1991 255 283 104
is_linear=0
shrinkage=0.05


Tree=9
num_leaves=31
num_cat=0
split_feature=60 18 2 2 14 3 17 14 17 2 14 68 62 3 2 17 2 14 2 68 17 16 62 2 3 1 16 68 14 18
split_gain=16.9325 16.1794 7.441 6.1821 6.11781 7.05812 4.37173 3.98119 4.53058 3.73914 3.53858 3.44556 3.36831 3.36079 2.99507 2.46086 2.24802 2.13009 4.04641 2.2392 2.06917 2.05457 1.71186 1.6038 1.57597 1.49084 1.285 1.20642 1.35924 1.1745
threshold=1.0500000000000003 8.5234571651766355 1.1548570227081585 4.6194280908326339 0.9295874749458013 2.1115433137089998 6.5000000000000009 21.520330628128352 203.50000000000003 -3.0853658536585362 0.50044047501464106 9.0000000000000018 1.0500000000000003 2.7750954778231063 1.0000000180025095e-35 10.500000000000002 1.0000000180025095e-35 0.059904352571566004 1.0000000180025095e-35 1.0500000000000003 8.5000000000000018 -2.7887624248374032 9.0000000000000018 8.5623423044575304 1.9161205624511763 11.200000000000001 1.0000000180025095e-35 1.0500000000000003 2.2518767577846357 1.7179498307438592
decision_type=2 10 10 10 10 10 10 10 10 8 8 2 2 10 8 10 8 8 8 2 10 8 2 10 10 2 8 2 10 8
left_child=2 3 4 10 5 9 24 27 -9 20 -2 15 17 -5 -12 22 -14 21 -19 -20 -1 -11 23 -4 29 -16 -18 -8 -29 -6
right_child=1 -3 11 13 6 -7 7 8 -10 12 14 -13 16 -15 25 -17 26 18 19 -21 -22 -23 -24 -25 -26 -27 -28 28 -30 -31
leaf_value=-0.014736393910300519 -0.0043171350965040579 0.052193302843010138 0.0035780162275519758 0.033901517033096289 0.013629740465432406 -0.028195972971456207 0.00092340318025886854 0.034084916682913906 0.0035612929548557489 -0.010032540911056605 -0.0022403756414860255 0.02090162738071134 -0.0033831567969173195 0.0092618898581713436 0.012455952878252836 0.00089568291753652557 -0.0013067737070692554 -0.00088329235962271479 0.00065768380147432544 0.0048685066172199408 -0.0024438348993580401 -0.00090897149764879279 0.018322219970919516 0.010470305722130022 0.018861920018458652 0.0044928732769965963 0.0088737828652764531 0.0016497804205685568 0.018987649257760496 0.0037626127975703355
leaf_weight=70 79 21 650 31 50 23 1102 20 31 62 64 27 64 25 177 775 37 6834 5768 334 67 13042 23 97 42 88 191 26 20 76
leaf_count=70 79 21 650 31 50 23 1102 20 31 62 64 27 64 25 177 775 37 6834 5768 334 67 13042 23 97 42 88 191 26 20 76
internal_value=-1.06632e-11 0.00926638 -0.000152703 0.00732356 -0.000341557 -0.000509868 0.00292025 0.00186183 0.0155313 -0.00048581 0.00518539 0.00319417 -0.000442945 0.0229017 0.00746715 0.00288472 0.00489733 -0.000502828 -4.76823e-05 0.000888168 -0.0087247 -0.000952139 0.00488668 0.004473 0.0104741 0.00981161 0.00722168 0.00125456 0.00918798 0.00767814
internal_weight=29916 485 29431 464 27859 26492 1367 1199 51 26469 408 1572 26332 56 329 1545 292 26040 12936 6102 137 13104 770 747 168 265 228 1148 46 126
internal_count=29916 485 29431 464 27859 26492 1367 1199 51 26469 408 1572 26332 56 329 1545 292 26040 12936 6102 137 13104 770 747 168 265 228 1148 46 126
is_linear=0
shrinkage=0.05


Tree=10
num_leaves=31
num_cat=0
split_feature=33 18 13 3 2 14 2 13 0 17 2 62 4 3 13 2 3 13 0 3 0 2 14 37 3 2 0 34 2 3
split_gain=15.245 15.0442 8.967 10.7359 6.35256 5.18531 5.01735 4.87852 4.63093 12.3156 3.84383 3.57898 3.56389 6.13219 3.32368 4.12937 2.4492 2.13432 2.89987 1.92558 2.6995 1.90053 1.80303 1.68223 1.68022 1.61039 2.7489 1.32696 1.46441 1.42885
threshold=1.0000000180025095e-35 13.016502473743602 -0.23206412489949077 -1.0000000180025095e-35 1.0000000180025095e-35 0.72674355524694045 0.67651387720773781 -25.092307692307688 5.5000000000000009 6.5000000000000009 8.1615853658536608 9.0000000000000018 6.5000000000000009 1.6332001682085791 0.12031019746536999 9.9542682926829276 16.051829268292689 1.2240093240093239 6.5000000000000009 5.5501909556462126 65.500000000000014 2.309714045416317 -0.19771273496573474 1.0000000180025095e-35 16.452402135231321 -3.0853658536585362 12.500000000000002 1.0000000180025095e-35 -2.9008620689655169 3.8117407043809064
decision_type=2 10 10 10 10 8 8 8 2 8 8 2 10 10 8 10 8 10 2 10 2 10 10 2 10 8 2 2 10 8
left_child=2 5 4 17 7 22 -7 8 9 -1 -5 16 13 -12 -8 -16 -6 -4 -19 -14 -21 -18 -2 -23 25 26 -9 -27 29 -29
right_child=1 -3 3 10 11 6 14 24 -10 -11 12 -13 19 -15 15 -17 21 18 -20 20 -22 23 -24 -25 -26 27 -28 28 -30 -31
leaf_value=-0.0067905645172706697 -0.0164340545097366 0.042944215469319251 -0.0043730716390752373 0.0010618200916685462 -0.00024232526429977951 -0.00045866853728065299 0.0037416626418646619 -0.023453319598920646 -0.0024020151997713578 -0.047787543601842356 0.0062887240448437094 0.014072274527435515 0.0021587400156133757 0.028152626117362696 0.012819641537072893 0.036535984240472323 0.0016843131426878075 -0.030603607222437858 -0.0090492147109536847 0.019645004810177183 0.004398151964107264 0.0048270630739125414 -0.00015774030338466298 0.018826828990131619 0.012481363693223103 -0.00076699148870031585 -0.0031472776548471305 -0.0017936723986640573 -0.0027016025093361375 0.0081737685104599223
leaf_weight=90 20 29 178 1692 1600 114 95 20 194 23 565 55 1151 34 223 20 1693 20 71 38 123 320 114 23 24 21027 100 50 82 128
leaf_count=90 20 29 178 1692 1600 114 95 20 194 23 565 55 1151 34 223 20 1693 20 71 38 123 320 114 23 24 21027 100 50 82 128
internal_value=1.37087e-11 0.00779088 -0.000163523 0.00207803 -0.000504838 0.0060512 0.0086121 -0.000830481 -0.00708878 -0.0151351 0.00279742 0.00141302 0.00433412 0.00752975 0.0116715 0.0147716 0.00122153 -0.00755752 -0.0137864 0.00287515 0.00799679 0.00237192 -0.00258704 0.00576582 -0.000740831 -0.000755655 -0.00653162 -0.000723094 0.00282703 0.00537393
internal_weight=29916 615 29301 3872 25429 586 452 21738 307 113 3603 3691 1911 599 338 243 3636 269 91 1312 161 2036 134 343 21431 21407 120 21287 260 178
internal_count=29916 615 29301 3872 25429 586 452 21738 307 113 3603 3691 1911 599 338 243 3636 269 91 1312 161 2036 134 343 21431 21407 120 21287 260 178
is_linear=0
shrinkage=0.05


Tree=11
num_leaves=31
num_cat=0
split_feature=60 18 13 3 2 2 2 13 18 14 16 4 14 17 5 0 62 3 3 0 2 13 2 2 0 13 34 2 2 3
split_gain=14.0238 13.8329 8.90801 11.311 5.31549 5.2797 4.41216 4.36508 4.43723 3.82536 3.24348 3.24344 4.51259 2.88187 3.64233 2.75678 2.6483 2.26197 2.18735 2.5493 2.04424 1.95213 1.93854 1.54717 2.23247 1.54709 1.47429 1.36717 1.27043 1.34431
threshold=1.0500000000000003 8.5234571651766355 -0.72564872275941683 -0.47834314550042051 1.0000000180025095e-35 1.1548570227081585 8.9827586206896566 -25.092307692307688 -0.59451219512195108 16.98273804357261 -7.8858284272497903 7.5000000000000009 1.1339107646506581 12.500000000000002 0.5945121951219513 3.5000000000000004 9.0000000000000018 0.8589749153719296 5.5501909556462126 65.500000000000014 8.1615853658536608 1.2833662064431293 4.6194280908326339 -3.0853658536585362 27.500000000000004 1.2240093240093239 1.0000000180025095e-35 1.0000000180025095e-35 -2.9008620689655169 -0.47834314550042051
decision_type=2 10 10 10 10 10 8 8 8 10 10 10 10 10 10 2 2 10 10 2 10 10 10 8 2 10 2 8 10 10
left_child=2 5 4 15 7 13 9 8 -1 -5 16 12 -8 14 27 -4 22 20 -13 -20 -7 -17 -6 24 -9 -14 -25 -2 29 -28
right_child=1 -3 3 6 10 17 11 23 -10 -11 -12 18 25 -15 -16 21 -18 -19 19 -21 -22 -23 -24 26 -26 -27 28 -29 -30 -31
leaf_value=-0.028908962572348262 -0.0022435051685045812 0.048125181372077872 -0.025364739485085011 0.00086772735005596956 0.0017909401845601959 0.016274153436858989 0.0053188409090104798 -0.016252217682985924 -0.005099434268280364 0.022815437600947917 -0.0010744732884615533 0.0017087594147910145 0.013565335614212718 -0.012686202131328173 0.021532424967736007 -0.0039986879507563104 0.013368660863488913 0.0078326383528410978 0.015007484241255692 0.003630325189512504 0.035623076166957618 -0.013697104683013828 0.0075620389651784182 -0.00074161276541039761 -0.0013621255473814198 0.028905109688639644 0.0080567096497199328 0.0053301609712951914 -0.0021583576118210696 -0.0025369781953019973
leaf_weight=21 82 21 20 2708 1841 43 650 39 287 20 886 1121 65 25 30 230 55 46 70 166 20 67 158 20689 71 22 129 218 77 39
leaf_count=21 82 21 20 2708 1841 43 650 39 287 20 886 1121 65 25 30 230 55 46 70 166 20 67 158 20689 71 22 129 218 77 39
internal_value=6.55559e-12 0.008433 -0.000138969 0.00175229 -0.000539067 0.00663659 0.00235373 -0.000813517 -0.00672281 0.00102863 0.00145416 0.00408003 0.00675021 0.0036812 0.00492115 -0.00739653 0.00254489 0.0162619 0.00262983 0.00700491 0.0224167 -0.00618655 0.00224709 -0.000727029 -0.00664134 0.0174444 -0.000695951 0.00326003 0.00315992 0.00559746
internal_weight=29916 485 29431 5139 24292 464 4822 21352 308 2728 2940 2094 737 355 330 317 2054 109 1357 236 63 297 1999 21044 110 87 20934 300 245 168
internal_count=29916 485 29431 5139 24292 464 4822 21352 308 2728 2940 2094 737 355 330 317 2054 109 1357 236 63 297 1999 21044 110 87 20934 300 245 168
is_linear=0
shrinkage=0.05


Tree=12
num_leaves=31
num_cat=0
split_feature=60 18 13 3 2 2 0 3 13 0 17 16 17 5 5 34 3 20 0 2 2 22 2 19 5 3 0 2 34 74
split_gain=12.6564 12.4842 8.03948 10.2552 4.79723 4.76493 4.35792 4.74233 3.93948 4.20377 11.012 2.92724 2.60088 3.28721 2.4197 2.25531 2.04143 2.02142 2.00834 1.90016 1.84492 1.78757 1.7875 1.57924 1.85339 1.54808 2.30659 1.42363 1.76415 1.75002
threshold=1.0500000000000003 8.5234571651766355 -0.72564872275941683 -1.0000000180025095e-35 1.0000000180025095e-35 1.1548570227081585 5.5000000000000009 1.6332001682085791 -25.092307692307688 5.5000000000000009 6.5000000000000009 -7.8858284272497903 12.500000000000002 0.5945121951219513 16.254231403524006 1.0000000180025095e-35 0.8589749153719296 4.4000000000000012 3.5000000000000004 4.6194280908326339 8.1615853658536608 9.4000000000000021 7.0670731707317085 12.500000000000002 1.0571456470792469 -2.9862279226240536 24.500000000000004 -1.0000000180025095e-35 1.0000000180025095e-35 9.0000000000000018
decision_type=2 10 10 10 10 10 2 10 8 2 8 10 10 10 10 2 10 2 2 8 10 2 10 10 10 10 2 8 2 2
left_child=2 5 4 18 8 12 7 21 9 10 -1 15 13 -2 19 22 20 -9 -4 -8 -7 -5 -6 24 -21 26 -20 29 -29 -10
right_child=1 -3 3 6 11 16 14 17 27 -11 -12 -13 -14 -15 -16 -17 -18 -19 25 23 -22 -23 -24 -25 -26 -27 -28 28 -30 -31
leaf_value=-0.0061696094015820163 0.0030970242445376548 0.045718924257726896 -0.019847867315491804 0.0075253008572640379 0.0017636959329228033 0.015460445728629483 0.00032020183562599591 0.026509880505424618 -0.0024137039337957735 -0.0019399905637267998 -0.044936155589580862 -0.0010207496390593454 -0.012051891850307583 0.020455804038792852 0.0097231286993271424 0.011173637477192425 0.0074410063305707739 0.0066843057610094549 -0.026477960245683791 0.0034831439472941907 0.033841922637075188 0.002808997990617242 0.0087235113548099295 0.00098483641415570648 0.013305703253832228 -0.0037545927256223879 -0.0060704386883783934 -0.00066537680527650918 0.0037197527690923065 -0.015178567631353094
leaf_weight=90 300 21 26 306 1886 43 2066 36 654 195 23 886 25 30 88 71 46 20 20 823 20 585 97 803 51 270 45 20130 232 28
leaf_count=90 300 21 26 306 1886 43 2066 36 654 195 23 886 25 30 88 71 46 20 20 823 20 585 97 803 51 270 45 20130 232 28
internal_value=-6.95071e-12 0.00801135 -0.000132021 0.00166467 -0.000512113 0.00630476 0.00227862 0.00531578 -0.000772841 -0.00638667 -0.0140601 0.00138145 0.00349714 0.0046751 0.00152786 0.00241764 0.0154488 0.0194293 -0.00646126 0.00133518 0.0212958 0.00442874 0.00210414 0.00258559 0.00405631 -0.0054223 -0.0123497 -0.000690677 -0.000615414 -0.00293777
internal_weight=29916 485 29431 5139 24292 464 4778 947 21352 308 113 2940 355 330 3831 2054 109 56 361 3743 63 891 1983 1677 874 335 65 21044 20362 682
internal_count=29916 485 29431 5139 24292 464 4778 947 21352 308 113 2940 355 330 3831 2054 109 56 361 3743 63 891 1983 1677 874 335 65 21044 20362 682
is_linear=0
shrinkage=0.05


Tree=13
num_leaves=31
num_cat=0
split_feature=60 18 13 3 2 2 0 3 13 14 14 14 13 5 0 69 3 2 13 3 62 2 13 1 5 1 13 62 13 3
split_gain=11.4224 11.267 7.25563 9.26811 4.40754 4.34421 3.81853 6.6968 3.61192 4.36652 3.04852 2.65829 2.47583 2.3894 2.35553 2.14937 2.14421 2.11209 1.82916 1.71965 1.56867 1.94553 1.53673 1.52525 1.4942 1.41721 1.35826 1.31793 1.31108 1.2753
threshold=1.0500000000000003 8.5234571651766355 -0.72564872275941683 -0.47834314550042051 1.1548570227081585 3.4645710681244752 8.5000000000000018 3.2664003364171581 -25.092307692307688 0.51091360404339115 0.94097659745771611 0.50044047501464106 1.2240093240093239 16.254231403524006 13.500000000000002 1.0000000180025095e-35 0.8589749153719296 1.0000000180025095e-35 2.6014257294429712 -1.0000000180025095e-35 1.0500000000000003 1.0000000180025095e-35 0.60903225806451611 7.4500000000000002 -1.7179498307438588 7.4500000000000002 -1.4169740320654951 9.0000000000000018 0.89412024756852382 -0.47834314550042051
decision_type=2 10 10 10 10 10 2 10 8 10 10 8 10 10 2 2 10 8 8 10 2 8 10 2 10 2 8 2 10 10
left_child=2 5 4 12 8 11 7 10 9 23 25 18 -4 -8 -14 19 -7 -13 -2 27 -10 -22 -12 24 -1 -5 -21 -6 -19 -23
right_child=1 -3 3 6 15 16 13 -9 20 -11 22 17 14 -15 -16 -17 -18 28 -20 26 21 29 -24 -25 -26 -27 -28 -29 -30 -31
leaf_value=-0.020982741404856956 -0.017259440310299395 0.04343297740533239 -0.0042831351450734129 0.0051598150551445407 0.0032614788502987008 0.026097044573786362 0.00088142555926277425 0.030298892175778747 -0.00057465067032523641 -0.025888119289651512 0.0061373871671477039 -0.0020681254105682002 -0.026164874008723665 0.0092369722437235235 -0.0076938900986634612 0.014327361605024808 0.0079976712182785077 0.0070452032144245839 0.00023775628590987777 -0.014567301759407634 -0.0047287610632463783 0.0077132273084665626 0.015508104765026924 -0.001609004481257732 -0.0060533172361894949 0.0018164747440508914 -0.00036705279469007274 0.015475380175706486 0.020380615293979647 -0.0020828289467663993
leaf_weight=21 20 21 244 472 556 36 3088 24 22976 25 114 64 28 88 45 42 30 235 59 21 58 159 71 201 83 965 85 23 20 42
leaf_count=21 20 21 244 472 556 36 3088 24 22976 25 114 64 28 88 45 42 30 235 59 21 58 159 71 201 83 965 85 23 20 42
internal_value=2.28081e-12 0.00761078 -0.00012542 0.00158144 -0.000486508 0.00598952 0.00212587 0.00408034 -0.000604803 -0.00579902 0.0036924 0.00401938 -0.00670008 0.00111294 -0.0147787 0.00334794 0.0178701 0.0060529 -0.00419191 0.00267475 -0.000531032 0.00333844 0.00973372 -0.00415237 -0.00906791 0.00291464 -0.00318031 0.00374666 0.00809112 0.00566629
internal_weight=29916 485 29431 5139 24292 464 4822 1646 23565 330 1622 398 317 3176 73 727 66 319 79 685 23235 259 185 305 104 1437 106 579 255 201
internal_count=29916 485 29431 5139 24292 464 4822 1646 23565 330 1622 398 317 3176 73 727 66 319 79 685 23235 259 185 305 104 1437 106 579 255 201
is_linear=0
shrinkage=0.05


Tree=14
num_leaves=31
num_cat=0
split_feature=60 19 13 3 13 3 16 0 14 3 62 4 3 13 0 3 14 37 1 0 3 13 0 4 14 0 17 34 13 13
split_gain=10.3088 10.3044 6.63018 7.7805 3.96069 16.4856 3.61878 5.07369 3.55929 2.66574 2.3063 2.1791 2.06208 2.04161 2.12586 1.76149 1.74278 2.60437 2.90254 1.70027 1.6207 1.5285 1.45649 1.67426 1.28591 1.31515 1.18248 1.15532 1.12628 1.09604
threshold=1.0500000000000003 3.5000000000000004 -0.23206412489949077 -0.47834314550042051 -3.4268125552608306 0.8589749153719296 1.6332001682085791 19.500000000000004 0.72674355524694045 -1.0000000180025095e-35 9.0000000000000018 7.5000000000000009 4.4212573591253168 1.2240093240093239 13.500000000000002 0.47834314550042062 1.8501811908688486 1.0000000180025095e-35 5.410000000000001 4.5000000000000009 59.679715302491111 0.86805043961308115 7.5000000000000009 7.5000000000000009 25.505396754252857 416.50000000000006 53.500000000000007 1.0000000180025095e-35 2.6014257294429712 1.5014475179992424
decision_type=2 8 10 10 8 10 8 2 8 10 2 10 10 10 2 10 8 2 2 2 10 10 2 10 10 2 8 2 8 10
left_child=2 -2 4 13 5 9 11 12 28 -1 16 15 -8 -4 -15 -5 -6 20 19 -19 27 -17 23 -11 26 -26 29 -18 -3 -9
right_child=1 8 3 6 10 -7 7 24 -10 22 -12 -13 -14 14 -16 21 17 18 -20 -21 -22 -23 -24 -25 25 -27 -28 -29 -30 -31
leaf_value=0.0086117384822335385 0.034202877629661198 -0.014052228464667374 -0.0039190416360180532 0.0019562834835893553 -0.00073483773894987407 -0.049507948961108925 0.011130047538579867 0.0038340909794751217 0.007111931058635646 -0.0054779960241184804 0.0063099141583706332 0.00043229193756606326 0.028215122818946836 -0.024856630247086287 -0.007309195605210133 0.0047134493083944035 -0.00017135258723322032 0.0048658399640218071 0.0022674435524844311 0.023365687220184894 0.013478485006966036 0.013905729539692402 -0.0013641305666050674 -0.01845444612049808 0.017877128594708275 0.002411153902411806 0.00014713902280856197 0.0042637325841277194 -0.00053177471869952735 0.015456796600483359
leaf_weight=44 33 24 157 956 14060 20 151 131 385 145 130 1698 20 28 45 347 10117 23 544 27 22 52 188 30 28 27 268 149 43 24
leaf_count=44 33 24 157 956 14060 20 151 131 385 145 130 1698 20 28 45 347 10117 23 544 27 22 52 188 30 28 27 268 149 43 24
internal_value=4.92566e-12 0.00723024 -0.000119149 0.00179196 -0.000413845 -0.00518886 0.00234634 0.00573692 0.005261 -0.00301101 -0.000332522 0.00162558 0.0131283 -0.00713126 -0.0140397 0.00312094 -0.000367143 0.000107933 0.00332707 0.0148558 -7.79307e-05 0.00591144 -0.00441983 -0.00770253 0.00309273 0.0102847 0.00215759 -0.000106982 -0.00537492 0.00563374
internal_weight=29916 485 29431 3932 25499 427 3702 649 452 407 25072 3053 171 230 73 1355 24942 10882 594 50 10288 399 363 175 478 55 423 10266 67 155
internal_count=29916 485 29431 3932 25499 427 3702 649 452 407 25072 3053 171 230 73 1355 24942 10882 594 50 10288 399 363 175 478 55 423 10266 67 155
is_linear=0
shrinkage=0.05


Tree=15
num_leaves=31
num_cat=0
split_feature=60 14 13 3 2 2 19 18 16 17 13 14 3 0 0 3 62 2 20 0 13 37 2 74 3 1 0 2 34 2
split_gain=9.30365 10.1363 5.98373 7.06462 4.6272 4.14299 3.31909 4.60325 3.1667 4.67691 2.96551 3.86746 2.39409 2.12197 1.87316 2.36902 1.85145 1.79509 2.01051 1.62564 1.57388 1.43559 1.40721 1.58806 1.39733 1.33246 1.34908 1.28951 1.17534 1.16586
threshold=1.0500000000000003 25.505396754252857 -0.23206412489949077 -1.0000000180025095e-35 10.195542472666109 1.0000000180025095e-35 19.500000000000004 1.0571456470792469 1.6332001682085791 11.500000000000002 -25.092307692307688 0.51091360404339115 7.2093145500420537 4.5000000000000009 63.500000000000007 6.2526282590412121 4.4000000000000012 1.0000000180025095e-35 9.0000000000000018 5.5000000000000009 0.99255134006265222 1.0000000180025095e-35 -1.0000000180025095e-35 9.0000000000000018 13.943812124187021 7.4500000000000002 5.5000000000000009 0.67651387720773781 1.0000000180025095e-35 35.335365853658544
decision_type=2 10 10 10 10 10 10 10 8 8 8 10 8 2 2 10 2 8 2 2 10 2 8 2 10 2 2 10 2 10
left_child=2 4 5 19 6 10 7 17 13 20 11 25 -7 -5 15 -11 21 -2 -19 -4 -10 29 23 -12 28 26 -1 -23 -24 -14
right_child=1 -3 3 8 -6 12 -8 -9 9 14 22 -13 16 -15 -16 -17 -18 18 -20 -21 -22 27 24 -25 -26 -27 -28 -29 -30 -31
leaf_value=-0.015566815940546803 -0.0023506590379111006 0.041722619603388016 -0.013555931232424387 0.0044287790955214986 0.028303878747170705 -0.00034663253758319474 -0.014210555904909321 0.028113575989291786 0.012742334863928667 0.0051206652133633053 -0.0022500490960491565 -0.024378584241494538 0.0014703356979382633 0.0009761177664901091 0.0011697847432322378 0.019245204921154418 0.010285044412897982 0.0029316720873873584 0.011328813064108613 -0.0040675876300684324 0.028972709849476815 0.0023758579514833403 -0.0005637488796625651 -0.014382339064364456 0.011808441881768649 -0.0012473283170942899 -0.0038614382461446442 0.01271652024644713 0.0029200685290591225 0.01055157547101165
leaf_weight=40 85 20 57 543 21 1554 23 21 59 234 735 25 1935 2466 302 34 69 206 109 217 20 64 20445 28 23 179 64 57 245 36
leaf_count=40 85 20 57 543 21 1554 23 21 59 234 735 25 1935 2466 302 34 69 206 109 217 20 64 20445 28 23 179 64 57 245 36
internal_value=2.5182e-12 0.00686873 -0.000113191 0.00170236 0.00536964 -0.000393153 0.00428491 0.00529535 0.0022824 0.00545008 -0.000656347 -0.00552773 0.00115016 0.00159918 0.00386991 0.00691258 0.00222653 0.0040974 0.00583735 -0.00604144 0.0168513 0.00196073 -0.000586484 -0.00269527 -0.000508803 -0.00386246 -0.00836351 0.00724708 -0.000522495 0.0016362
internal_weight=29916 485 29431 3932 465 25499 444 421 3658 649 21784 308 3715 3009 570 268 2161 400 315 274 79 2092 21476 763 20713 283 104 121 20690 1971
internal_count=29916 485 29431 3932 465 25499 444 421 3658 649 21784 308 3715 3009 570 268 2161 400 315 274 79 2092 21476 763 20713 283 104 121 20690 1971
is_linear=0
shrinkage=0.05


Tree=16
num_leaves=31
num_cat=0
split_feature=33 5 13 3 2 14 2 17 3 0 0 14 2 0 68 1 3 3 2 37 3 2 20 0 62 1 3 13 14 13
split_gain=8.42382 12.086 4.92336 7.2147 4.2019 3.5435 3.30412 3.34269 3.27708 11.3666 3.22926 3.45882 2.69719 2.38974 2.20861 2.1345 1.90463 1.8754 1.75254 1.60245 2.70442 1.56036 1.98328 3.83025 1.50424 1.42325 1.97759 1.27151 1.20279 1.18714
threshold=1.0000000180025095e-35 18.566693429389812 -0.85569646254973175 -0.47834314550042051 1.1548570227081585 0.61501261564339804 0.67651387720773781 9.5000000000000018 1.6332001682085791 4.5000000000000009 5.5000000000000009 2.8523185921361001 8.9827586206896566 5.5000000000000009 9.0000000000000018 7.4500000000000002 0.67651387720773781 -1.6332001682085786 8.1615853658536608 1.0000000180025095e-35 2.1115433137089998 -3.0853658536585362 4.4000000000000012 48.500000000000007 1.0500000000000003 11.200000000000001 1.6332001682085791 0.5667473280903409 6.2939249740853045 0.31926537377361802
decision_type=2 10 10 10 10 8 8 10 10 2 2 10 10 2 2 2 10 10 8 2 10 8 2 2 2 2 10 8 10 10
left_child=2 5 4 13 8 27 -7 12 21 -10 11 15 25 17 -6 16 -5 -4 -12 -20 -21 22 -1 -24 -23 26 -8 -2 -9 -18
right_child=1 -3 3 10 14 6 7 28 9 -11 18 -13 -14 -15 -16 -17 29 -19 19 20 -22 24 23 -25 -26 -27 -28 -29 -30 -31
leaf_value=0.00052057946825193036 -0.012868517936614674 0.044022389128804212 -0.025887906263106625 0.0054479236316392864 0.0028686407958144031 -0.000912082277966711 0.00989801470281804 -0.0090009862544118534 -0.042806673613376922 -0.0027981461345410064 0.00022881722285414595 0.023967524965039708 0.028059916778213602 -0.0037326690766320892 0.01746079496116619 0.0021495255781559639 0.00631252220676591 -0.0083369299810793669 0.0019950668698292028 0.0024205872727806905 0.020527291635517031 -0.00049964967039774417 -0.030749779101461174 -0.001880515768883655 0.0033922243781714326 0.0032804663392848204 0.02422100164528404 -0.00046471545101667289 0.0040951587301678955 0.021432552563355252
leaf_weight=45 27 20 23 269 655 117 173 27 20 158 2286 22 22 257 27 603 21 45 1544 58 32 22904 20 27 251 63 28 88 50 34
leaf_count=45 27 20 23 269 655 117 173 27 20 158 2286 22 22 257 27 603 21 45 1544 58 32 22904 20 27 251 63 28 88 50 34
internal_value=-1.07117e-12 0.00579131 -0.000121554 0.00127475 -0.000422396 0.00450623 0.0063949 0.00875004 -0.000535031 -0.00729349 0.0017562 0.00437325 0.0112396 -0.00593809 0.00344634 0.00390823 0.00718136 -0.0142733 0.00112263 0.0023731 0.00885853 -0.000483283 -0.00698199 -0.0141653 -0.000457462 0.00983793 0.0118933 -0.00337691 -0.000496996 0.0156595
internal_weight=29916 615 29301 5194 24107 595 480 363 23425 178 4869 949 286 325 682 927 324 68 3920 1634 90 23247 92 47 23155 264 201 115 77 55
internal_count=29916 615 29301 5194 24107 595 480 363 23425 178 4869 949 286 325 682 927 324 68 3920 1634 90 23247 92 47 23155 264 201 115 77 55
is_linear=0
shrinkage=0.05


Tree=17
num_leaves=31
num_cat=0
split_feature=60 18 13 3 3 13 2 2 0 3 3 14 17 5 68 0 14 6 13 2 0 3 2 37 34 13 1 0 5 1
split_gain=7.71533 9.83234 4.91749 6.89854 4.16595 13.1869 3.89929 3.3129 3.25113 6.19977 2.29757 2.22242 1.99693 2.16724 1.95228 1.83869 1.6572 1.53054 1.46252 1.39524 2.35775 1.46083 3.23859 2.16969 2.31145 2.02253 1.64389 2.68357 2.34166 1.31338
threshold=1.0500000000000003 8.5234571651766355 -0.86235828272207837 -1.0000000180025095e-35 2.1115433137089998 -1.9954724306858449 1.1548570227081585 1.1548570227081585 8.5000000000000018 4.554546570131305 -7.0111438183347348 0.94097659745771611 12.500000000000002 0.5945121951219513 9.0000000000000018 3.5000000000000004 14.836005989063452 133.50000000000003 0.467790119771827 -3.0853658536585362 15.500000000000002 -1.0000000180025095e-35 1.0000000180025095e-35 1.0000000180025095e-35 1.0000000180025095e-35 -1.4169740320654951 7.4500000000000002 5.5000000000000009 1.0000000180025095e-35 5.410000000000001
decision_type=2 10 10 10 10 10 10 10 2 10 10 10 10 10 2 2 10 8 10 8 2 10 8 2 2 8 2 2 8 2
left_child=2 7 4 10 6 -6 19 12 9 11 -4 -5 13 -2 -8 -9 -10 -18 -13 20 -1 22 -21 24 -24 26 27 28 -23 -25
right_child=1 -3 3 8 5 -7 14 15 16 -11 -12 18 -14 -15 -16 -17 17 -19 -20 21 -22 25 23 29 -26 -27 -28 -29 -30 -31
leaf_value=-0.021673687722068281 0.0021502181635781503 0.039718926919712905 -0.017849925317039547 0.0025034290389978238 -0.04468724849549207 -0.0018108906916711126 0.0028608373040808557 0.025278995992531157 0.00059979868961429906 0.030571914411016872 -0.0040367180187163166 0.0050426548834805749 -0.011225221140775829 0.016245039186129968 0.016587755208214126 0.0090994583845911969 0.014573988853953779 0.0030934671713067673 0.013681245041526345 -0.00069763771176457694 -0.0025715799005757572 -0.0079927891318220656 0.0005574735645382001 0.012995846027850498 0.006498373766581334 -0.000665401226343633 -0.001659330715743923 -0.0036600349047559225 -0.028653514041798191 0.0038709481162915818
leaf_weight=20 300 21 33 1419 22 97 637 22 3087 21 343 149 25 30 27 87 38 123 73 6087 84 32 3404 49 172 12879 285 124 24 202
leaf_count=20 300 21 33 1419 22 97 637 22 3087 21 343 149 25 30 27 87 38 123 73 6087 84 32 3404 49 172 12879 285 124 24 202
internal_value=-4.17501e-13 0.006255 -0.000103078 0.00127823 -0.000405483 -0.00973761 -0.000359261 0.00474047 0.00177808 0.00357669 -0.00524905 0.00323123 0.0023994 0.00343157 0.00341901 0.0123651 0.000857724 0.00580316 0.00788327 -0.000466648 -0.00624506 -0.000440809 1.89195e-05 0.00115863 0.000843222 -0.000782367 -0.00402195 -0.00776277 -0.0168474 0.0056523
internal_weight=29916 485 29431 5286 24145 119 24026 464 4910 1662 376 1641 355 330 664 109 3248 161 222 23362 104 23258 9914 3827 3576 13344 465 180 56 251
internal_count=29916 485 29431 5286 24145 119 24026 464 4910 1662 376 1641 355 330 664 109 3248 161 222 23362 104 23258 9914 3827 3576 13344 465 180 56 251
is_linear=0
shrinkage=0.05


Tree=18
num_leaves=31
num_cat=0
split_feature=3 19 2 13 3 16 0 60 13 5 4 2 3 0 2 0 68 60 0 62 2 2 0 2 13 1 3 2 0 17
split_gain=7.27324 28.3504 5.06909 4.27968 5.91278 4.38463 4.65292 4.15137 3.34538 7.09965 2.31977 2.02045 1.89235 1.83105 1.67568 4.47054 1.56589 1.3868 1.16291 1.16025 1.14539 0.996285 0.982857 0.947112 0.907118 0.9069 0.870467 0.822834 1.15775 1.42033
threshold=13.016502473743602 53.500000000000007 1.1548570227081585 0.1069488493409453 -0.47834314550042051 1.0229782795435025 13.500000000000002 4.4000000000000012 -25.092307692307688 -0.85897491537192938 10.500000000000002 8.1615853658536608 1.6332001682085791 5.5000000000000009 -3.0853658536585362 9.5000000000000018 9.0000000000000018 9.0000000000000018 9.5000000000000018 9.0000000000000018 1.0000000180025095e-35 8.5623423044575304 31.500000000000004 1.0000000180025095e-35 0.98110816386678468 7.4500000000000002 -2.9862279226240536 -5.3506097560975601 23.500000000000004 7.5000000000000009
decision_type=10 8 10 10 10 8 2 2 8 8 10 10 10 2 8 2 2 2 2 2 8 10 2 10 10 2 10 10 2 10
left_child=2 -2 3 8 13 18 12 10 9 -1 16 -9 -7 -5 15 -10 21 19 25 23 -21 22 -4 -16 -14 -6 -15 28 29 -11
right_child=1 -3 7 4 5 6 -8 11 14 27 -12 -13 24 26 17 -17 -18 -19 -20 20 -22 -23 -24 -25 -26 -27 -28 -29 -30 -31
leaf_value=-0.034288017898797991 0.062983831877566204 0.0029784028581273554 0.0042552645052637674 -0.017104324602865078 0.0038407914458961755 0.0086817838886307317 0.0027128987591906969 0.0091782222967594865 -0.025468104496637053 -0.0045300157120800582 -5.6014663083938298e-05 0.027351450594142082 0.015233350275678837 -0.013588920735713581 -0.00049783151875813271 -0.0017609575762497995 0.01575836723463403 0.0054502744168875 3.2245433687760746e-05 -0.0035729747650952177 0.0081068079649029602 0.0082438510386561303 0.00026654402191143991 0.00048682977702626992 0.027535076676444576 0.001116803800526357 -0.0029334420887702755 -0.0010030590717022302 0.0017650749469693338 -0.015884699295496657
leaf_weight=20 22 187 430 38 511 115 335 65 24 80 679 20 47 23 21565 116 27 103 1180 29 76 97 241 2754 22 760 115 157 36 42
leaf_count=20 22 187 430 38 511 115 335 65 24 80 679 20 47 23 21565 116 27 103 1180 29 76 97 241 2754 22 760 115 157 36 42
internal_value=5.66188e-12 0.00929476 -6.53922e-05 -0.000219103 0.00151894 0.00204661 0.00622151 0.00270988 -0.000437801 -0.00540077 0.0020903 0.0134543 0.0126095 -0.00738554 -0.000370399 -0.00582504 0.00392343 -0.000339264 0.00116257 -0.000363679 0.00488096 0.00350736 0.00282265 -0.000386324 0.0191556 0.00221197 -0.00470936 -0.00356665 -0.00611402 -0.00843901
internal_weight=29916 209 29707 28148 3146 2970 519 1559 25002 335 1474 85 184 176 24667 140 795 24527 2451 24424 105 768 671 24319 69 1271 138 315 158 122
internal_count=29916 209 29707 28148 3146 2970 519 1559 25002 335 1474 85 184 176 24667 140 795 24527 2451 24424 105 768 671 24319 69 1271 138 315 158 122
is_linear=0
shrinkage=0.05


Tree=19
num_leaves=31
num_cat=0
split_feature=3 6 2 13 16 0 14 14 60 13 18 4 0 0 2 0 68 60 6 62 2 62 3 13 2 0 2 2 28 17
split_gain=6.92188 17.6269 4.69449 4.19153 5.68418 5.12226 4.53029 3.7248 3.65591 3.02184 5.3072 2.0731 1.64492 1.53108 1.47453 4.08321 1.41308 1.2508 1.17689 1.0464 1.03371 0.954283 0.933853 1.0726 0.913544 0.900564 0.854709 0.793415 0.962659 1.18607
threshold=32.780172413793117 203.50000000000003 1.1548570227081585 0.02391450013401231 0.8589749153719296 10.500000000000002 -0.48996734598589081 2.7819289513302548 4.4000000000000012 -25.092307692307688 -0.59451219512195108 10.500000000000002 5.5000000000000009 3.5000000000000004 -3.0853658536585362 9.5000000000000018 9.0000000000000018 9.0000000000000018 4.5000000000000009 9.0000000000000018 1.0000000180025095e-35 9.0000000000000018 0.67651387720773781 1.148839747786998 8.5623423044575304 32.500000000000007 1.0000000180025095e-35 -5.3506097560975601 1.0000000180025095e-35 7.5000000000000009
decision_type=10 8 10 10 8 2 10 10 2 8 8 10 2 2 8 2 2 2 8 2 8 2 10 10 10 2 10 10 2 10
left_child=2 -2 3 9 6 7 12 22 11 10 -1 16 -5 -10 15 -11 21 19 -8 26 -21 24 -6 -24 -4 -7 -16 28 29 -12
right_child=1 -3 8 4 5 25 18 -9 13 14 27 -13 -14 -15 17 -17 -18 -19 -20 20 -22 -23 23 -25 -26 -27 -28 -29 -30 -31
leaf_value=-0.028868574496697299 0.05502078606543364 0.002964187248331634 0.0023470911385474183 -0.018413855260117882 0.00317740453386002 0.005788496838849304 0.0031287313689858823 0.033583319708704949 0.023514832072594968 -0.024725657288470995 -0.0045510081937079252 3.1657431299240197e-05 -0.0053607882012220893 0.0085583550051193356 -0.00047116415556306725 -0.0016805980879411452 0.014970448978797155 0.0051777605148195065 0.00043400132139661401 -0.0033943259960104682 0.0077014675510949206 0.013363955331885297 0.0095668380393181002 0.020168106586617583 0.0075493984492063602 0.0011344901731646928 0.00046468821291300189 -0.00095290611914224078 -0.0011513986698475727 -0.015995674540202967
leaf_weight=22 20 87 649 31 33 175 512 20 22 23 56 725 109 77 21563 117 27 103 1942 29 76 23 80 34 97 256 2751 157 62 38
leaf_count=22 20 87 649 31 33 175 512 20 22 23 56 725 109 77 21563 117 27 103 1942 29 76 23 80 34 97 256 2751 157 62 38
internal_value=-5.8793e-12 0.0126944 -4.55668e-05 -0.000195988 0.00151021 0.00590468 0.000497142 0.0133388 0.00257185 -0.000413861 -0.00513073 0.00196586 -0.00825111 0.011882 -0.000349789 -0.00546657 0.00372755 -0.000320576 0.000996227 -0.000343768 0.00463692 0.0033328 0.0105845 0.0127286 0.00302353 0.00302417 -0.000365277 -0.00346225 -0.00598768 -0.00917758
internal_weight=29916 107 29809 28189 3192 598 2594 167 1620 24997 335 1521 140 99 24662 140 796 24522 2454 24419 105 769 147 114 746 431 24314 313 156 94
internal_count=29916 107 29809 28189 3192 598 2594 167 1620 24997 335 1521 140 99 24662 140 796 24522 2454 24419 105 769 147 114 746 431 24314 313 156 94
is_linear=0
shrinkage=0.05


Tree=20
num_leaves=31
num_cat=0
split_feature=14 0 2 60 5 0 14 17 2 0 16 4 16 2 62 68 8 60 2 8 14 2 14 68 62 4 1 0 2 1
split_gain=6.26299 19.8708 4.24961 3.34671 2.94432 9.25722 2.58748 4.12099 2.39443 4.94711 3.04791 1.87261 1.71531 1.55635 1.52011 1.27531 1.25733 1.10641 1.03374 0.927152 1.15518 0.903799 1.96234 1.66605 0.86124 0.84934 1.3284 2.00115 0.824474 0.792451
threshold=25.505396754252857 50.500000000000007 1.1548570227081585 4.4000000000000012 -1.0571456470792464 7.5000000000000009 0.9295874749458013 6.5000000000000009 -3.0853658536585362 10.500000000000002 -3.6340703931950347 10.500000000000002 5.0977712363330543 10.195542472666109 1.0500000000000003 9.0000000000000018 68.500000000000014 9.0000000000000018 1.0000000180025095e-35 22.500000000000004 2.5164570170213918 1.0000000180025095e-35 0.059904352571566004 1.0500000000000003 9.0000000000000018 2.5000000000000004 5.410000000000001 4.5000000000000009 8.5623423044575304 7.4500000000000002
decision_type=10 2 10 2 8 2 10 10 8 2 8 10 8 10 2 2 8 2 8 8 10 8 8 2 2 10 2 2 10 2
left_child=2 -2 4 11 5 -1 8 12 9 -6 -10 15 -8 -5 17 24 -7 21 -16 20 -9 -12 -23 -24 28 26 27 -25 -4 -11
right_child=1 -3 3 13 6 16 7 19 10 29 14 -13 -14 -15 18 -17 -18 -19 -20 -21 -22 22 23 25 -26 -27 -28 -29 -30 -31
leaf_value=-0.038974903658963743 0.056764399409294133 0.0026952896902823938 0.0022297365992049382 0.0081286175825976241 -0.026147371909960554 -0.010608843034283529 0.0065982030641559206 0.0021275269745842018 -0.014384055319552367 -0.0090967312412060519 -0.00055458576806664763 9.1673276666100929e-06 0.01970145581290126 0.023506361634160082 -0.0022617238274376308 0.014221926419823259 0.0012319485881483688 0.0049188726635884892 0.0049844791187659016 0.00017245929171703356 0.012013043436066559 -0.00059006286039468522 0.00046948446711141871 0.0037353668137694953 0.012695757502123066 0.00021535569497365317 0.003782203013102549 0.023805441901735641 0.0071719285252455165 0.0010494102061892959
leaf_weight=20 20 113 649 76 27 31 180 165 38 27 13646 710 29 21 63 27 81 103 225 987 36 6258 5863 27 23 99 185 23 97 67
leaf_count=20 20 113 649 76 27 31 180 165 38 27 13646 710 29 21 63 27 81 103 225 987 36 6258 5863 27 23 99 185 23 97 67
internal_value=8.64115e-13 0.010826 -4.83449e-05 0.00245583 -0.000190793 -0.00764079 -0.000155732 0.00194184 -0.000265683 -0.00728331 -0.000233676 0.00187602 0.00841636 0.0114578 -0.000213379 0.00354117 -0.00204541 -0.000253085 0.00339937 0.000802802 0.00389807 -0.000273495 3.44747e-05 0.00066516 0.00316616 0.00410002 0.00573654 0.0129676 0.00287235 -0.00186491
internal_weight=29916 133 29783 1603 28180 132 28048 1397 26651 121 26530 1506 209 97 26492 796 112 26204 288 1188 201 26101 12455 6197 769 334 235 50 746 94
internal_count=29916 133 29783 1603 28180 132 28048 1397 26651 121 26530 1506 209 97 26492 796 112 26204 288 1188 201 26101 12455 6197 769 334 235 50 746 94
is_linear=0
shrinkage=0.05


Tree=21
num_leaves=31
num_cat=0
split_feature=3 6 13 3 2 60 0 3 13 18 2 3 0 0 62 2 3 3 2 3 0 2 4 3 13 13 37 3 2 13
split_gain=5.8049 15.6264 3.83107 4.96373 4.23474 3.25326 3.1578 3.89209 3.01389 7.40087 2.01686 1.80337 4.00525 1.78537 1.53925 1.19309 1.14559 1.14025 1.09637 1.54399 1.1656 2.07723 1.01629 1.19649 1.92679 0.979392 0.8701 0.859805 0.854361 0.831806
threshold=32.780172413793117 203.50000000000003 -0.23206412489949077 -0.47834314550042051 32.750000000000007 9.0000000000000018 3.5000000000000004 1.3871951219512197 -25.092307692307688 -0.85897491537192938 1.0000000180025095e-35 2.1115433137089998 19.500000000000004 5.5000000000000009 9.0000000000000018 0.47834314550042062 -1.0229782795435021 8.3662872745122119 -1.0000000180025095e-35 -5.77428511354079 10.500000000000002 -1.9908536585365852 11.500000000000002 0.47834314550042062 1.3578219364893827 2.2465327775672606 1.0000000180025095e-35 0.47834314550042062 0.67651387720773781 0.98110816386678468
decision_type=10 8 10 10 10 2 2 10 8 8 10 10 2 2 2 8 10 8 8 10 2 10 10 10 10 10 2 10 10 10
left_child=2 -2 4 13 5 8 7 27 9 -1 18 22 29 16 17 -7 -4 -12 19 20 21 -10 23 -8 -25 -14 -19 -5 -28 -13
right_child=1 -3 3 6 -6 15 11 -9 10 -11 14 12 25 -15 -16 -17 -18 26 -20 -21 -22 -23 -24 24 -26 -27 28 -29 -30 -31
leaf_value=-0.034507662891410294 0.051477297116070991 0.0024636939949117336 -0.023290539928711954 0.0032637170478628241 0.017369726212585673 0.0011059509171962233 0.00075094723906871368 0.026580839434807952 -0.020999174452542017 -0.0031617012385406203 -0.00032466751505390155 0.010824868561966079 0.0012416660226075554 -0.0033786404949330642 0.0091139479404823351 0.010022980040527013 -0.0078417542320676145 0.0012113392689707208 -0.00038550337404563966 1.6820861908356686e-05 -0.0018004304561068626 -0.0052966124762586046 -0.00013563254515444034 0.0022882626420120634 0.010085912680155353 0.011918250555375024 0.0017338595040316237 0.0085649276695524655 0.010347991336558789 0.021603960212320091
leaf_weight=20 20 87 20 246 34 59 1071 22 24 322 1577 63 325 186 55 103 30 1935 20832 369 201 172 1296 477 95 23 63 111 53 25
leaf_count=20 20 87 20 246 34 59 1071 22 24 322 1577 63 325 186 55 103 30 1935 20832 369 201 172 1296 477 95 23 63 111 53 25
internal_value=3.94573e-12 0.0116251 -4.17286e-05 0.00140019 -0.000264558 -0.000287811 0.00184236 0.00616981 -0.000332468 -0.0049948 -0.000269396 0.00135641 0.00435717 -0.00563343 0.000812078 0.00677542 -0.0140213 0.000686223 -0.000453814 -0.00231159 -0.00447578 -0.00721938 0.000911245 0.00173702 0.00358333 0.0019473 0.00146349 0.00491199 0.00566963 0.0138871
internal_weight=29916 107 29809 3990 25819 25785 3754 379 25623 342 25281 3375 436 236 3683 162 50 3628 21598 766 397 196 2939 1643 572 348 2051 357 116 88
internal_count=29916 107 29809 3990 25819 25785 3754 379 25623 342 25281 3375 436 236 3683 162 50 3628 21598 766 397 196 2939 1643 572 348 2051 357 116 88
is_linear=0
shrinkage=0.05


Tree=22
num_leaves=31
num_cat=0
split_feature=3 0 2 13 16 0 14 14 4 13 5 60 13 60 3 0 2 0 20 62 2 6 1 2 3 0 1 17 13 13
split_gain=5.23892 14.4111 3.51772 3.27539 4.41513 4.37376 3.57745 3.04292 3.01256 2.43659 5.15685 2.06579 1.48362 1.342 1.32225 1.23804 1.05092 1.93006 2.02408 1.40949 1.02727 0.987721 0.931463 1.1114 0.847127 0.791362 0.899952 0.789822 0.942099 0.786762
threshold=32.780172413793117 76.500000000000014 2.309714045416317 0.02391450013401231 1.0229782795435025 10.500000000000002 -0.48996734598589081 2.7819289513302548 15.500000000000002 -25.092307692307688 -0.85897491537192938 4.4000000000000012 1.2240093240093239 9.0000000000000018 -12.607758620689655 13.500000000000002 -0.67651387720773759 6.5000000000000009 4.4000000000000012 1.0500000000000003 6.7309714045416333 4.5000000000000009 7.4500000000000002 -4.421257359125315 0.67651387720773781 5.5000000000000009 7.4500000000000002 70.500000000000014 1.8414854111405841 1.148839747786998
decision_type=10 2 10 10 8 2 10 10 10 8 8 2 10 2 8 2 8 2 2 2 10 8 2 10 10 2 2 8 10 10
left_child=2 -2 3 9 6 7 12 24 11 10 -1 -4 -5 14 -11 -14 17 18 -16 -18 -13 -8 23 -19 -6 26 -12 28 -7 -26
right_child=1 -3 8 4 5 27 21 -9 -10 13 25 20 15 -15 16 -17 19 22 -20 -21 -22 -23 -24 -25 29 -27 -28 -29 -30 -31
leaf_value=-0.029174194927327337 0.049315050980076193 0.0022458844102287517 0.0045422884272504653 -0.0029948182242771834 0.0028027347278442574 0.0029825835055847724 0.0028385927450598116 0.03066222626715899 2.2779793002720391e-05 -0.013150892131379805 -0.012513578055092159 0.0085942595344386061 -0.021471364680194081 0.0048937969392165541 -0.003076337192887588 -0.0067824661793565617 -0.00028607387661177348 -0.014820570167680475 -0.017457773286732845 0.0031342528589340841 0.022317692664451896 0.00043073376707257309 0.0004274920409276955 -0.0022367772379594327 0.0089405123569557196 -0.0011597105125033126 -0.003105629828426834 -0.00033045575935955582 0.01102429974261065 0.018233307155177875
leaf_weight=20 20 87 431 85 33 238 534 20 448 20 39 30 26 125 63 32 24229 23 40 305 25 2104 295 74 69 206 73 145 43 34
leaf_count=20 20 87 431 85 33 238 534 20 448 20 39 30 26 125 63 32 24229 23 40 305 25 2104 295 74 69 206 73 145 43 34
internal_value=-3.45546e-12 0.0110439 -3.96422e-05 -0.00013733 0.0013294 0.0052896 0.000500618 0.0124523 0.00298041 -0.000330674 -0.00454771 0.00570678 -0.00720178 -0.000274054 -0.000299843 -0.0133671 -0.000289574 -0.00257051 -0.00866136 -0.000243553 0.0148322 0.000918147 -0.000970113 -0.00522056 0.0097744 -0.00299887 -0.00638161 0.00266663 0.00421317 0.012008
internal_weight=29916 107 29809 28875 3363 582 2781 156 934 25512 338 486 143 25174 25049 58 25029 495 103 24534 55 2638 392 97 136 318 112 426 281 103
internal_count=29916 107 29809 28875 3363 582 2781 156 934 25512 338 486 143 25174 25049 58 25029 495 103 24534 55 2638 392 97 136 318 112 426 281 103
is_linear=0
shrinkage=0.05


Tree=23
num_leaves=31
num_cat=0
split_feature=14 0 2 13 3 2 3 37 33 34 3 16 2 0 0 13 13 0 17 13 1 13 25 1 14 1 0 0 13 1
split_gain=4.79143 28.1008 3.7349 2.93751 16.7832 3.11663 4.68931 3.3934 3.23424 3.2578 1.97187 1.57822 1.48395 4.02887 1.45529 1.37876 1.11287 1.11107 1.56002 1.11003 1.07658 0.888565 0.856966 0.853587 0.832772 1.16586 0.825144 0.81948 0.766873 0.721572
threshold=12.060557894280013 16.500000000000004 25.948275862068972 -3.7522546419098139 0.47834314550042062 1.0000000180025095e-35 0.47834314550042062 1.0000000180025095e-35 1.0000000180025095e-35 1.0000000180025095e-35 -0.47834314550042051 -3.6340703931950347 -3.0853658536585362 7.5000000000000009 206.50000000000003 1.3006864623243939 0.42074270557029197 7.5000000000000009 7.5000000000000009 -0.66611032937252446 7.4500000000000002 -1.3121615427255668 1.0000000180025095e-35 11.200000000000001 0.94097659745771611 5.410000000000001 7.5000000000000009 3.5000000000000004 0.66956112852664607 7.4500000000000002
decision_type=10 2 10 8 10 8 8 2 2 2 10 8 10 2 2 10 10 2 10 10 2 8 2 2 8 2 2 2 10 2
left_child=2 -2 3 4 10 12 11 8 9 16 -1 19 13 -5 -4 24 21 18 -12 -7 -15 -8 -23 -10 -9 26 -26 -18 -3 -11
right_child=1 28 14 5 -6 6 7 15 23 29 17 -13 -14 20 -16 -17 27 -19 -20 -21 -22 22 -24 -25 25 -27 -28 -29 -30 -31
leaf_value=0.012652950986618332 0.063684235538821674 0.00045287496800458917 0.024316459256224335 -0.024686974044079366 -0.037377505656830699 -0.00014900394810617648 -0.0048114828994015174 0.00041871148800551468 0.0073665625529341222 0.0080056237122418644 -0.0029156134686240094 -0.00034783309819879521 -0.00050373258226976399 -0.010913851263051454 0.0063764843964376127 0.016413186628509453 0.0090426528326621874 0.00049038886888615825 -0.015619207155521446 -0.014648421910048151 2.8369771474931521e-05 0.00025123802969278223 0.0030360603570393514 0.0016346925241205925 0.0072357575636530337 0.0044343731822494327 0.018265133389338321 0.0018282099817979959 0.0069994603844075387 0.0030818253246924052
leaf_weight=24 20 185 20 23 35 22 83 88 248 174 145 7490 13833 28 26 27 41 191 29 33 114 5123 292 88 43 289 28 985 59 130
leaf_count=24 20 185 20 23 35 22 83 88 248 174 145 7490 13833 28 26 27 41 191 29 33 114 5123 292 88 43 289 28 985 59 130
internal_value=-6.62413e-12 0.00670619 -5.97071e-05 -8.18264e-05 -0.00421368 -2.17927e-05 0.000474337 0.0013476 0.00107624 0.000840571 -0.00122978 -0.000409801 -0.000559958 -0.00527366 0.0141765 0.00544021 0.000604814 -0.00214262 -0.00503288 -0.00884865 -0.00212925 0.000322712 0.000401408 0.00586536 0.00477889 0.00584471 0.0115854 0.00211651 0.00203586 0.00590005
internal_weight=29916 264 29652 29606 424 29182 15184 7639 7164 6828 389 7545 13998 165 46 475 6524 365 174 55 142 5498 5415 336 448 360 71 1026 244 304
internal_count=29916 264 29652 29606 424 29182 15184 7639 7164 6828 389 7545 13998 165 46 475 6524 365 174 55 142 5498 5415 336 448 360 71 1026 244 304
is_linear=0
shrinkage=0.05


Tree=24
num_leaves=31
num_cat=0
split_feature=3 6 13 3 2 0 3 60 13 18 2 0 16 0 62 3 2 16 17 2 3 0 2 14 13 3 13 7 68 2
split_gain=4.59501 13.6077 2.93739 3.92347 3.4087 2.6774 3.2795 2.37313 2.32187 6.07777 1.58969 1.51418 1.44985 2.73798 1.2116 0.973487 0.961069 0.956456 0.848454 0.847218 1.25801 1.0288 1.66106 0.845863 1.36094 0.835634 1.35275 0.715419 0.71296 0.750885
threshold=32.780172413793117 203.50000000000003 -0.23206412489949077 -0.47834314550042051 32.750000000000007 3.5000000000000004 1.3871951219512197 9.0000000000000018 -25.092307692307688 -0.85897491537192938 1.0000000180025095e-35 5.5000000000000009 2.1115433137089998 25.500000000000004 9.0000000000000018 -1.0229782795435021 0.47834314550042062 8.3662872745122119 11.500000000000002 -1.0000000180025095e-35 -5.77428511354079 10.500000000000002 -1.9908536585365852 1.3206923738460605 1.3006864623243939 0.47834314550042062 0.86805043961308115 -1.3879003558718859 1.0000000180025095e-35 0.67651387720773781
decision_type=10 8 10 10 10 2 10 2 8 8 10 2 8 2 2 10 8 8 10 8 10 2 10 10 10 10 10 8 2 10
left_child=2 -2 4 11 7 6 -5 8 9 -1 19 15 18 23 17 -4 -9 -12 25 20 21 22 -10 -14 -25 -7 -27 -13 -19 -30
right_child=1 -3 3 5 -6 12 -8 16 10 -11 14 27 13 -15 -16 -17 -18 28 -20 -21 -22 -23 -24 24 -26 26 -28 -29 29 -31
leaf_value=-0.031128434827551246 0.047531992122530939 0.0017937066297758712 -0.021297091151354836 0.0044486902320659029 0.01558894262621727 0.00068859035629906175 0.024339279430833732 0.00069108564782516745 -0.018886140904699766 -0.0027222820381584772 -0.00031688844121591811 -0.011885082402732224 0.0012907582121745994 0.0013130798593010695 0.008089736360125244 -0.0070559644089856505 0.0086942212461738038 0.001094227563772647 -0.00019674982110411414 -0.00033956431370081217 6.9032818316242241e-05 -0.0014727645073797258 -0.0048443955799844255 0.0089494976797141138 0.023100287665701696 0.0019243299340275669 0.0082838932344576968 -0.0018749998855500634 0.0014397515845115461 0.0095154019656924996
leaf_weight=20 20 87 20 357 34 1054 22 59 24 322 1570 20 24 328 55 30 103 1942 1293 20832 369 201 172 89 21 464 102 166 63 53
leaf_count=20 20 87 20 357 34 1054 22 59 24 322 1570 20 24 328 55 30 103 1942 1293 20832 369 201 172 89 21 464 102 166 63 53
internal_value=-5.26212e-13 0.0103429 -3.71261e-05 0.00122546 -0.000232243 0.00161858 0.00560329 -0.000253104 -0.000291245 -0.00438346 -0.000235886 -0.00502785 0.00117111 0.00377333 0.000724255 -0.0127524 0.0057795 0.000612595 0.000758401 -0.000399614 -0.00203271 -0.00398622 -0.00656379 0.00979544 0.011651 0.00152075 0.0030704 -0.00295135 0.00132168 0.00512949
internal_weight=29916 107 29809 3990 25819 3754 379 25785 25623 342 25281 236 3375 462 3683 50 162 3628 2913 21598 766 397 196 134 110 1620 566 186 2058 116
internal_count=29916 107 29809 3990 25819 3754 379 25785 25623 342 25281 236 3375 462 3683 50 162 3628 2913 21598 766 397 196 134 110 1620 566 186 2058 116
is_linear=0
shrinkage=0.05


Tree=25
num_leaves=31
num_cat=0
split_feature=14 6 2 4 13 3 16 0 14 13 5 60 0 14 3 2 0 0 0 0 1 2 0 1 0 3 2 17 0 1
split_gain=4.17068 16.2601 2.72328 2.48368 2.41492 3.50817 2.59341 3.7754 2.57474 1.85029 4.11 1.68513 1.32706 2.02195 1.15149 0.986494 0.977985 0.890932 0.840869 0.761358 0.770022 0.759229 1.66293 1.48372 1.6995 0.696804 0.735858 0.695534 0.684867 0.812815
threshold=25.505396754252857 133.50000000000003 2.309714045416317 15.500000000000002 0.02391450013401231 -0.47834314550042051 1.0229782795435025 10.500000000000002 2.7819289513302548 -25.092307692307688 -0.85897491537192938 4.4000000000000012 13.500000000000002 -0.93141946191213032 -12.607758620689655 1.0000000180025095e-35 22.500000000000004 9.5000000000000018 4.5000000000000009 31.500000000000004 7.4500000000000002 -0.67651387720773759 2.5000000000000004 7.4500000000000002 11.500000000000002 0.47834314550042062 0.67651387720773781 45.500000000000007 5.5000000000000009 7.4500000000000002
decision_type=10 8 10 10 10 10 8 2 10 8 8 2 2 10 8 10 2 2 2 2 2 8 2 2 2 8 10 8 2 2
left_child=2 -2 4 11 9 12 17 8 -8 10 -1 19 13 -6 -11 21 -13 -7 25 20 -4 22 -16 24 -24 -17 -27 -9 29 -12
right_child=1 -3 3 -5 5 6 7 27 -10 14 28 16 -14 -15 15 18 -18 -19 -20 -21 -22 -23 23 -25 -26 26 -28 -29 -30 -31
leaf_value=-0.025950651140883563 0.050390109163708986 0.001479473441300411 0.010618388364938173 -0.00011695103352019909 -0.023746477253735066 0.0017650722249373124 0.0087425042104715602 0.0040876142285703292 0.027956371121108534 -0.012233845919836313 -0.011557144420937851 0.018575348600964336 -0.0019086906002893191 -0.0056395420138242438 -0.016410333919338882 -0.00077043009119936166 0.004851736475220172 -8.8113648483247788e-05 0.00011973361943467377 0.0018959611298759707 0.0041633250386085268 -0.00030896015380683142 -0.017095456456219585 -0.00011287079666300363 -0.0031188681282788176 0.0016113060123119759 0.0053089922466255631 1.2382198509862419e-05 -0.00087174686427494898 -0.0026162469839319997
leaf_weight=20 20 113 66 432 21 1320 136 214 20 20 39 34 107 58 20 180 21 1275 2518 211 154 21327 29 361 87 434 195 205 206 73
leaf_count=20 20 113 66 432 21 1320 136 214 20 20 39 34 107 58 20 180 21 1275 2518 211 154 21327 29 361 87 434 195 205 206 73
internal_value=6.33605e-12 0.00883446 -3.94514e-05 0.00264155 -0.000124716 0.00113616 0.00152774 0.00456591 0.0112058 -0.000290598 -0.00396541 0.00509354 -0.00553763 -0.0104528 -0.000241252 -0.000231716 0.0133354 0.000854547 0.000570295 0.00404179 0.00609984 -0.00035398 -0.00228584 -0.00169362 -0.00661302 0.00197266 0.00275765 0.00209377 -0.00258269 -0.0057296
internal_weight=29916 133 29783 918 28865 3356 3170 575 156 25509 338 486 186 79 25171 25151 55 2595 3327 431 220 21824 497 477 116 809 629 419 318 112
internal_count=29916 133 29783 918 28865 3356 3170 575 156 25509 338 486 186 79 25171 25151 55 2595 3327 431 220 21824 497 477 116 809 629 419 318 112
is_linear=0
shrinkage=0.05


Tree=26
num_leaves=31
num_cat=0
split_feature=3 0 2 13 3 0 3 0 60 13 14 5 0 4 1 5 19 14 68 0 13 2 74 3 13 0 2 37 1 0
split_gain=3.86022 12.2749 2.42104 2.28798 3.38953 2.66554 2.18461 4.49838 2.04961 1.65509 3.80508 1.61669 1.40254 1.27568 1.25975 2.15954 1.25076 0.918812 0.911575 0.898621 0.979586 0.764131 1.16366 1.0125 2.16637 1.94645 1.80952 1.33393 1.12603 1.70939
threshold=32.780172413793117 76.500000000000014 1.1548570227081585 -0.20952272484547504 -1.9161205624511759 25.500000000000004 1.6332001682085791 8.5000000000000018 4.4000000000000012 -25.092307692307688 0.48153696348596825 1.0000000180025095e-35 3.5000000000000004 12.500000000000002 7.4500000000000002 -5.5501909556462108 3.5000000000000004 0.77082067528860365 9.0000000000000018 45.500000000000007 1.8617582417582417 -1.0000000180025095e-35 9.0000000000000018 -1.0000000180025095e-35 -1.4587091069849689 5.5000000000000009 1.0000000180025095e-35 1.0000000180025095e-35 5.410000000000001 4.5000000000000009
decision_type=10 2 10 10 10 2 10 2 2 8 10 10 2 10 2 10 8 10 2 2 10 8 2 10 8 2 8 2 2 2
left_child=2 -2 3 9 5 -5 16 11 13 10 14 -8 -10 18 15 -1 17 -6 -4 20 -9 22 -11 26 25 -25 -23 -28 29 -29
right_child=1 -3 8 4 6 -7 7 19 12 21 -12 -13 -14 -15 -16 -17 -18 -19 -20 -21 -22 23 -24 24 -26 -27 27 28 -30 -31
leaf_value=-0.02097522458505063 0.044800863298587505 0.0013601995359864701 0.0024037658743912287 -0.024368259975348007 0.0026519014012246819 -0.0030527010516379961 0.029290338302962484 0.0039505781685193146 0.019950447187081659 -0.0014337454056223128 -0.021445779032572838 0.01156026460747752 0.0056355463836777519 -0.0002035407613447122 0.00011765857478995615 -0.0030486935260428472 0.00040627643338418711 0.011118907263236388 0.011743417437429782 0.00040262635402218321 0.015849349237978459 -0.00038630101024088266 -0.011816808709409089 -0.020923929164807002 -0.00042678049933368733 -0.0042353222960138321 0.00076044085904659615 0.0013891799051476562 0.0028774416986647447 0.020101966279057359
leaf_weight=21 20 87 807 22 379 44 20 128 22 744 28 36 77 687 202 84 2569 35 27 197 20 5784 28 21 13744 104 3726 23 204 26
leaf_count=21 20 87 807 22 379 44 20 128 22 744 28 36 77 687 202 84 2569 35 27 197 20 5784 28 21 13744 104 3726 23 204 26
internal_value=-7.12872e-12 0.00947995 -3.40285e-05 -0.000142051 0.0010642 -0.0101579 0.00128307 0.00474802 0.00184563 -0.00031027 -0.00380085 0.0178924 0.00881664 0.0013919 -0.00219154 -0.006634 0.000817283 0.00336771 0.00270613 0.00261443 0.00555852 -0.000262354 -0.00181033 -0.000211785 -0.000486376 -0.00703901 0.000178289 0.000998995 0.00451225 0.0113184
internal_weight=29916 107 29809 28189 3450 66 3384 401 1620 24739 335 56 99 1521 307 105 2983 414 834 345 148 24404 772 23632 13869 125 9763 3979 253 49
internal_count=29916 107 29809 28189 3450 66 3384 401 1620 24739 335 56 99 1521 307 105 2983 414 834 345 148 24404 772 23632 13869 125 9763 3979 253 49
is_linear=0
shrinkage=0.05


Tree=27
num_leaves=31
num_cat=0
split_feature=18 13 2 17 13 3 0 16 14 16 13 2 0 0 3 2 13 37 33 34 13 1 18 2 20 0 17 3 1 0
split_gain=3.61573 12.6332 2.1272 2.25754 1.95104 3.61139 4.63878 2.31855 4.91209 1.8456 8.59136 1.52856 1.43654 1.20416 1.06219 2.51497 1.4717 1.26271 1.22811 1.33824 1.14026 1.40815 1.86129 1.04516 2.07407 3.44642 1.02431 0.974698 0.90779 1.50827
threshold=19.024390243902442 1.0895622895622896 2.309714045416317 15.500000000000002 -0.72564872275941683 -1.9161205624511759 14.500000000000002 88.274835083760095 1.1238956323634903 2.1115433137089998 -1.6961312026913371 25.948275862068972 3.5000000000000004 62.500000000000007 -1.0000000180025095e-35 1.0000000180025095e-35 -4.4340406719717054 1.0000000180025095e-35 1.0000000180025095e-35 1.0000000180025095e-35 -1.4169740320654951 7.4500000000000002 -3.6340703931950347 -3.0853658536585362 4.4000000000000012 31.500000000000004 6.5000000000000009 1.0229782795435025 5.410000000000001 4.5000000000000009
decision_type=10 10 10 10 10 10 2 8 8 10 10 10 2 2 10 8 8 2 2 2 8 2 10 10 2 2 10 10 2 2
left_child=2 -2 4 11 9 6 -6 12 -9 14 -11 13 27 -4 15 23 -17 18 19 -18 21 22 26 24 -1 -26 -16 -7 29 -19
right_child=1 -3 3 -5 5 7 -8 8 -10 10 -12 -13 -14 -15 20 16 17 28 -20 -21 -22 -23 -24 -25 25 -27 -28 -29 -30 -31
leaf_value=0.0040028171461268238 0.00060581542773434198 0.045034882563631987 0.0055811977668641394 -0.00021778996714774961 -0.024911827240139246 0.0027207206893413022 -0.0018171935070370902 0.0022136560216714659 0.030949336788617079 -0.034680186816364193 -0.00087501350484717839 0.014305470898551376 0.0006036178808672024 -4.4951125589389715e-05 -0.0080472711700990442 0.014591630687646101 0.00038416567650758292 0.0013197205393858579 0.0051804664563525494 0.0047106405439061496 -0.00045774290518246514 -0.00086606829412446567 -0.0036754311812175373 -0.00044666371955692303 -0.028614808429265393 -0.0007680009635369061 -0.023858052655123176 0.0097563379460520912 0.002961588777600512 0.01906147251930088
leaf_weight=29 80 20 311 457 30 361 79 58 20 22 129 38 4113 137 21 20 3626 23 152 188 13037 316 143 6142 20 25 20 57 217 25
leaf_count=29 80 20 311 457 30 361 79 58 20 22 129 38 4113 137 21 20 3626 23 152 188 13037 316 143 6142 20 25 20 57 217 25
internal_value=3.26158e-12 0.00949163 -3.1834e-05 0.00230506 -0.000108158 0.000821839 -0.00817351 0.00103457 0.00958178 -0.000289806 -0.00580027 0.00467737 0.000887436 0.0038607 -0.000255142 0.000123109 0.00106032 0.000996353 0.000773075 0.000597427 -0.000547611 -0.00289084 -0.00636815 -0.000517829 -0.00642452 -0.0131444 -0.0157598 0.00368012 0.00433794 0.0105602
internal_weight=29916 100 29816 943 28873 4718 109 4609 78 24155 151 486 4531 448 24004 10467 4251 4231 3966 3814 13537 500 184 6216 74 45 41 418 265 48
internal_count=29916 100 29816 943 28873 4718 109 4609 78 24155 151 486 4531 448 24004 10467 4251 4231 3966 3814 13537 500 184 6216 74 45 41 418 265 48
is_linear=0
shrinkage=0.05


Tree=28
num_leaves=31
num_cat=0
split_feature=3 0 2 0 5 0 13 14 3 4 60 13 2 0 62 14 8 6 13 2 0 13 4 2 1 0 3 0 68 2
split_gain=3.38109 23.4922 2.4514 2.07257 2.00609 8.48969 2.13563 2.76082 1.98639 3.21069 1.66171 1.47969 1.06255 1.04853 0.983976 0.963355 0.945129 0.912007 0.836625 0.795696 3.75842 0.787625 0.728905 0.690922 0.585361 0.565515 0.629816 0.555089 0.459793 0.57869
threshold=13.016502473743602 25.500000000000004 25.948275862068972 140.50000000000003 -1.0571456470792464 7.5000000000000009 0.41379310344827619 -0.48996734598589081 0.67651387720773781 11.500000000000002 9.0000000000000018 2.5518567639257301 1.0000000180025095e-35 6.5000000000000009 9.0000000000000018 -5.6639646417785814 68.500000000000014 9.5000000000000018 -0.78280186749751501 -3.0853658536585362 10.500000000000002 -1.4169740320654951 2.5000000000000004 0.47834314550042062 7.4500000000000002 25.500000000000004 2.7887624248374041 2.5000000000000004 9.0000000000000018 0.67651387720773781
decision_type=10 2 10 2 8 2 10 10 10 10 2 10 10 2 2 8 8 8 10 8 2 10 10 8 2 2 10 2 2 10
left_child=2 -2 4 -4 5 -1 10 13 17 11 12 -10 15 -8 22 -6 -7 27 -3 20 -17 -18 28 -12 -22 26 -11 -9 -14 -30
right_child=1 18 3 -5 6 16 7 8 9 25 23 -13 14 -15 -16 19 21 -19 -20 -21 24 -23 -24 -25 -26 -27 -28 -29 29 -31
leaf_value=-0.034550421409816907 0.05786898232530803 -0.0074451684056279751 0.023399780345498583 0.0030016302226365289 -0.010352783023457353 -0.0082148322567997152 -0.017579479403238195 0.0082587311310427531 0.0081914033995163001 0.0027672917291710385 0.00058701978838544789 0.022120318011465398 0.000922962817628509 -0.0043535805034867307 0.0071589201594046735 -0.021656174222007395 0.010660194905940444 -4.31429002783501e-05 0.0022128024112263215 -0.00030667611741683778 -0.0065464275594826586 -0.00064653374003628694 -0.00022334599709366998 0.0073848686758520125 0.0019415910476421165 0.00063564291927291751 0.011613234533713414 0.0018280183200638828 0.0012673117395934242 0.0092614407920719767
leaf_weight=22 20 26 20 33 24 31 22 35 143 89 59 22 2055 47 55 25 20 1214 163 22137 27 67 2146 102 82 296 26 814 56 38
leaf_count=22 20 26 20 33 24 31 22 35 143 89 59 22 2055 47 55 25 20 1214 163 22137 27 67 2146 102 82 296 26 814 56 38
internal_value=7.82781e-14 0.00633728 -4.45852e-05 0.010699 -6.37871e-05 -0.00603488 -3.54631e-05 0.0013027 0.00156085 0.00415695 -0.000170648 0.0100486 -0.000201249 -0.00857053 0.000513571 -0.000340718 -0.000718421 0.000836009 0.000884193 -0.000329928 -0.00417125 0.00195271 0.000428473 0.00489373 -0.000160946 0.00179169 0.00476724 0.00209312 0.00107938 0.00449898
internal_weight=29916 209 29707 53 29654 140 29514 2708 2639 576 26806 165 26645 69 4350 22295 118 2063 189 22271 134 87 4295 161 109 411 115 849 2149 94
internal_count=29916 209 29707 53 29654 140 29514 2708 2639 576 26806 165 26645 69 4350 22295 118 2063 189 22271 134 87 4295 161 109 411 115 849 2149 94
is_linear=0
shrinkage=0.05


Tree=29
num_leaves=31
num_cat=0
split_feature=3 6 13 3 2 13 3 3 4 60 16 4 14 19 2 1 13 4 3 1 4 37 34 2 3 62 2 2 16 40
split_gain=3.21835 10.9091 1.83338 2.89648 2.54129 1.6262 14.2871 1.61343 1.54197 1.5376 1.51944 3.2718 2.02079 1.03261 1.00729 1.16703 0.768698 0.760526 0.815481 0.726451 0.922087 0.690791 0.662218 0.65854 0.782734 0.646019 0.636682 0.618501 0.565602 0.562909
threshold=32.780172413793117 203.50000000000003 -0.3621255302226935 -1.9161205624511759 32.750000000000007 -3.7522546419098139 0.47834314550042062 -0.47834314550042051 41.500000000000007 9.0000000000000018 1.0229782795435025 11.500000000000002 5.5013595862428142 16.500000000000004 0.67651387720773781 7.4500000000000002 2.2465327775672606 5.5000000000000009 -1.0000000180025095e-35 7.4500000000000002 7.5000000000000009 1.0000000180025095e-35 1.0000000180025095e-35 -1.0000000180025095e-35 -5.77428511354079 9.0000000000000018 0.47834314550042062 1.0603448275862071 2.7887624248374041 1.0000000180025095e-35
decision_type=10 8 10 10 10 8 10 10 10 2 8 10 10 10 10 2 10 10 10 2 10 2 2 8 10 2 8 8 10 2
left_child=2 -2 4 8 5 6 7 -1 -4 14 17 12 -12 19 23 21 -13 18 -5 20 -9 22 -16 24 29 -25 -11 -20 -18 -7
right_child=1 -3 3 10 -6 9 -8 13 -10 26 11 16 -14 -15 15 -17 28 -19 27 -21 -22 -23 -24 25 -26 -27 -28 -29 -30 -31
leaf_value=0.011796566311269999 0.041953847068361944 0.0010013035926879211 -0.015803191848221775 -0.0046019642031751573 0.01347058184705127 -0.0026787293216249605 -0.033409412430935641 -0.0026873569922381134 -0.0018222142065585614 0.00055766876281823153 0.0060692493788025922 0.00062629894006398029 0.022520442167297008 0.0038130262490156312 0.0017860847926160926 -7.499422351388151e-05 0.0025696691961327039 -2.3571844517586223e-06 0.00068047222547569194 -0.0011118199620963848 -0.013657099797128466 0.0090120844877301116 0.0087594492412689656 -0.0002440541818135586 4.0703704188203896e-05 0.0041752812874093874 0.0070716146251991463 0.0032502112058251892 0.013578780434327201 -0.0094076114805990499
leaf_weight=25 20 87 38 49 34 362 36 53 41 59 280 736 20 77 627 1077 28 2056 451 206 30 39 36 22392 330 83 103 487 20 34
leaf_count=25 20 87 38 49 34 362 36 53 41 59 280 736 20 77 627 1077 28 2056 451 206 30 39 36 22392 330 83 103 487 20 34
internal_value=-1.3155e-12 0.00865598 -3.10708e-05 0.000936389 -0.000190003 -0.000208168 -0.00326791 -0.000492738 -0.00854724 -0.000156202 0.00111793 0.00272535 0.007166 -0.00133217 -0.000187691 0.00095892 0.00102613 0.000545318 0.00168617 -0.00270304 -0.00665232 0.00254514 0.00216473 -0.000275611 -0.00175775 -0.000227734 0.00469925 0.00201465 0.0071568 -0.00325646
internal_weight=29916 107 29809 4206 25603 25569 427 391 79 25142 4127 1084 300 366 24980 1779 784 3043 987 289 83 702 663 23201 726 22475 162 938 48 396
internal_count=29916 107 29809 4206 25603 25569 427 391 79 25142 4127 1084 300 366 24980 1779 784 3043 987 289 83 702 663 23201 726 22475 162 938 48 396
is_linear=0
shrinkage=0.05


Tree=30
num_leaves=31
num_cat=0
split_feature=18 0 13 18 2 3 13 0 37 33 34 19 13 13 2 3 13 13 14 0 14 2 0 1 17 1 25 0 2 17
split_gain=2.9491 11.6666 1.68224 4.84091 1.77693 2.78226 3.42247 3.82247 2.29246 2.44241 2.41731 1.85628 1.17605 1.17537 1.2337 1.20491 0.938657 0.887506 1.57251 1.47973 0.88321 0.780763 2.75249 0.806541 0.761001 0.707668 0.681611 0.602754 0.735385 1.17115
threshold=19.024390243902442 33.500000000000007 -25.092307692307688 -0.85897491537192938 1.0000000180025095e-35 0.47834314550042062 -1.0078272604588392 5.5000000000000009 1.0000000180025095e-35 1.0000000180025095e-35 1.0000000180025095e-35 22.500000000000004 0.84706511073731439 -0.074987797368737161 10.195542472666109 2.309714045416317 1.5972590627763044 -1.3121615427255668 -2.7754480947834383 25.500000000000004 8.2272589184966609 -3.0853658536585362 7.5000000000000009 7.4500000000000002 16.500000000000004 7.4500000000000002 1.0000000180025095e-35 23.500000000000004 -5.3506097560975601 7.5000000000000009
decision_type=10 2 8 8 8 8 8 2 2 2 2 10 10 8 10 10 10 8 10 2 10 10 2 2 8 2 2 2 10 10
left_child=2 -2 3 -1 20 17 7 -7 9 10 16 13 -10 -11 15 -15 26 24 19 -19 21 22 -4 -24 25 -6 -8 28 29 -5
right_child=1 -3 4 27 5 6 8 -9 12 11 -12 -13 -14 14 -16 -17 -18 18 -20 -21 -22 -23 23 -25 -26 -27 -28 -29 -30 -31
leaf_value=-0.027384247619193048 0.042728553581982853 3.2997042580973357e-05 -0.019867992141972421 -0.002370748483794339 0.01494795950939474 -0.026624038354271934 0.00029337442303299627 -0.0032372350805627108 0.003863020131908681 0.00082780427260181722 0.0051087344904043389 -0.0086252528635668568 0.013930156245084119 0.0053788960544138105 0.019039084161410022 0.018180613126605748 0.0035447656307074932 -0.019745088636409492 -0.00031339960002511267 -0.0021872872230596844 0.010104147738893517 -0.00036943095776747077 -0.0088724859807241176 0.00057454411389154948 0.00053648475651770194 0.0034498276156227805 0.0026342671487704717 0.0024877512334690742 -0.00057613634942741201 -0.012659491616068408
leaf_weight=20 20 80 23 81 23 21 5988 104 452 91 302 24 31 227 21 20 249 20 7403 30 20 13844 28 117 76 32 328 60 139 42
leaf_count=20 20 80 23 81 23 21 5988 104 452 91 302 24 31 227 21 20 249 20 7403 30 20 13844 28 117 76 32 328 60 139 42
internal_value=-4.13119e-12 0.00857211 -2.875e-05 -0.0035153 1.17059e-05 0.000381784 0.00104112 -0.00716622 0.00117379 0.000951589 0.000734855 0.00483751 0.00450915 0.00573753 0.00740464 0.00641547 0.00053365 -0.000301378 -0.000373087 -0.00921041 -0.00039556 -0.000410546 -0.00379864 -0.00124971 0.0037784 0.00825814 0.000414941 -0.00203276 -0.00306799 -0.00588398
internal_weight=29916 100 29816 342 29474 15442 7858 125 7733 7250 6867 383 483 359 268 247 6565 7584 7453 50 14032 14012 168 145 131 55 6316 322 262 123
internal_count=29916 100 29816 342 29474 15442 7858 125 7733 7250 6867 383 483 359 268 247 6565 7584 7453 50 14032 14012 168 145 131 55 6316 322 262 123
is_linear=0
shrinkage=0.05


Tree=31
num_leaves=31
num_cat=0
split_feature=3 0 13 3 2 0 3 13 18 60 13 0 3 0 3 2 1 14 4 3 13 5 0 13 2 0 0 2 0 17
split_gain=2.85949 10.4692 1.55761 2.48427 2.03535 1.75737 2.30061 1.38333 4.36892 1.22719 1.07139 1.25522 1.00574 2.01374 0.875173 0.747677 0.798372 0.691866 0.641867 0.6855 1.16219 0.638644 0.622275 0.770504 0.61299 0.983061 0.60622 1.22966 0.600001 0.862066
threshold=32.780172413793117 76.500000000000014 0.02391450013401231 -1.0000000180025095e-35 32.750000000000007 3.5000000000000004 1.0229782795435025 -25.092307692307688 -0.85897491537192938 9.0000000000000018 1.2240093240093239 6.5000000000000009 2.1115433137089998 19.500000000000004 -12.607758620689655 1.0000000180025095e-35 7.4500000000000002 -0.92491428695425737 19.500000000000004 0.47834314550042062 3.2877226222053815 12.484756097560977 63.500000000000007 1.5014475179992424 7.885828427249792 92.500000000000014 13.500000000000002 0.67651387720773781 5.5000000000000009 6.5000000000000009
decision_type=10 2 10 10 10 2 10 8 8 2 10 2 10 2 8 10 2 10 10 10 10 8 2 10 10 2 2 10 2 8
left_child=2 -2 4 10 7 6 -5 8 -1 14 -4 -12 18 21 -9 -16 24 -13 19 -7 -21 -14 23 -15 26 -26 27 -17 29 -10
right_child=1 -3 3 5 -6 12 -8 9 28 -11 11 17 13 22 15 16 -18 -19 -20 20 -22 -23 -24 -25 25 -27 -28 -29 -30 -31
leaf_value=-0.026015033717267218 0.040778858320554723 0.0006603484624734513 -0.0012694149457300749 0.0032519523104773337 0.011554871838086763 0.00033534307923576654 0.016447421223730656 -0.010369028563478164 -0.0028411833733390339 0.0041995212853955174 -0.018943119452645384 -0.011816461774520576 0.0080238754705836378 0.0024512868839916668 -0.00027142648289542158 0.00094489228865440129 -0.00015244936093341098 -0.0015587177809607057 -0.00075334690673183686 0.0018758387241215469 0.01284686105325818 0.018658404331654312 -0.00033490884913001486 0.013110366333941265 0.015269134114496411 -0.00022001765069684816 -2.3654450830648096e-05 0.0050798361700706944 -0.00034409081248294135 -0.0142837396170944
leaf_weight=20 20 87 140 308 37 1299 37 21 93 162 21 25 48 88 21756 755 2166 48 679 701 25 20 170 21 20 21 663 236 209 20
leaf_count=20 20 87 140 308 37 1299 37 21 93 162 21 25 48 88 21756 755 2166 48 679 701 25 20 170 21 20 21 663 236 209 20
internal_value=2.00558e-12 0.00815914 -2.92874e-05 0.000941332 -0.000163874 0.00128468 0.00466712 -0.00018046 -0.00333953 -0.000138584 -0.00404168 -0.00817059 0.000902207 0.00343634 -0.000165996 -0.000157631 0.000483582 -0.00507164 0.000577005 0.00102308 0.00225363 0.0111517 0.0015559 0.00450487 0.00129635 0.00733567 0.00114665 0.0019296 -0.00193112 -0.00486641
internal_weight=29916 107 29809 3630 26179 3396 345 26142 342 25800 234 94 3051 347 25638 25617 3861 73 2704 2025 726 68 279 109 1695 41 1654 991 322 113
internal_count=29916 107 29809 3630 26179 3396 345 26142 342 25800 234 94 3051 347 25638 25617 3861 73 2704 2025 726 68 279 109 1695 41 1654 991 322 113
is_linear=0
shrinkage=0.05


Tree=32
num_leaves=31
num_cat=0
split_feature=3 6 14 14 2 68 33 4 34 2 16 2 0 2 3 1 18 13 17 0 2 44 13 13 13 0 19 0 1 3
split_gain=2.58069 9.62051 1.44018 6.00445 2.83392 2.69476 1.98611 2.07955 1.9208 1.26941 1.04741 0.929235 2.29253 2.10184 0.820099 0.724583 0.686391 0.67271 0.562783 1.62277 0.831871 0.531864 0.57766 0.525425 0.52464 0.503063 0.499189 0.409186 0.401201 0.384873
threshold=32.780172413793117 203.50000000000003 0.55602425655499665 0.50044047501464106 0.67651387720773781 1.0500000000000003 1.0000000180025095e-35 9.5000000000000018 1.0000000180025095e-35 8.9827586206896566 -9.3892655540557097 -0.67651387720773759 10.500000000000002 -2.1206896551724133 4.8996005046257372 7.4500000000000002 1.9161205624511763 -0.51778467837173414 3.5000000000000004 4.5000000000000009 3.7447434819175789 1.0500000000000003 0.42074270557029197 -0.6457732037065167 -0.69295953297878832 2.5000000000000004 15.500000000000002 8.5000000000000018 11.200000000000001 1.0229782795435025
decision_type=10 8 8 10 8 2 2 10 2 10 8 10 2 10 10 2 10 10 10 2 8 2 10 8 10 2 10 2 2 10
left_child=2 -2 3 10 11 6 8 9 21 16 -1 12 13 -4 18 -15 28 -9 19 -7 -21 22 -6 -10 -3 -25 29 -22 -8 -24
right_child=1 24 4 -5 5 14 7 17 23 -11 -12 -13 -14 15 -16 -17 -18 -19 -20 20 27 -23 26 25 -26 -27 -28 -29 -30 -31
leaf_value=-0.008733255114104296 0.039020736147649587 -0.0065438548347447074 -0.023298773453349159 -0.025897580847326341 0.00010757227513289905 0.003381597311428754 0.0059622280365434913 -0.010298354409210984 -0.0019250642800788802 0.018022006183177421 -0.00031038265046959821 -0.00015742084381723258 -0.00031306675563157383 -0.011524265666181843 0.014748457576269689 -0.0015782360368943279 0.013970209844410421 9.9439398618415018e-05 0.00092130243867712179 0.0045083506279514135 0.012295697949826719 0.0030146034261915046 0.0017433055028985352 0.0027922504924167441 0.0026841564101354677 0.0073176001464909787 0.0003324888206932488 0.021890849368646742 0.0013160062369905294 0.0050212368857119292
leaf_weight=37 20 20 21 23 4192 157 177 21 27 22 15084 8129 262 30 23 47 22 60 67 21 25 194 283 106 67 146 419 20 63 131
leaf_count=37 20 20 21 23 4192 157 177 21 27 22 15084 8129 262 30 23 47 22 60 67 21 25 194 283 106 67 146 419 20 63 131
internal_value=5.05387e-12 0.00775118 -2.7823e-05 -0.000369822 0.000325347 0.00114023 0.000898917 0.00447055 0.000661804 0.0064861 -0.000330993 -0.000267508 -0.00275334 -0.00927734 0.0056605 -0.00545331 0.00551743 -0.00259628 0.00493973 0.00614707 0.0127255 0.000445723 0.000346546 0.00470384 0.000562775 0.00541408 0.00154916 0.0165602 0.00474259 0.00278053
internal_weight=29916 107 29809 15144 14665 6176 5863 365 5498 284 15121 8489 360 98 313 77 262 81 290 223 66 5219 5025 279 87 252 833 45 240 414
internal_count=29916 107 29809 15144 14665 6176 5863 365 5498 284 15121 8489 360 98 313 77 262 81 290 223 66 5219 5025 279 87 252 833 45 240 414
is_linear=0
shrinkage=0.05


Tree=33
num_leaves=31
num_cat=0
split_feature=18 13 5 3 2 13 13 3 4 16 14 4 3 13 3 2 37 60 34 13 41 14 2 74 25 8 1 21 3 2
split_gain=2.42617 10.9971 1.37465 4.12005 1.37726 1.39079 1.3749 1.85368 2.3858 1.65647 3.67151 1.27059 1.70561 1.25055 1.02725 2.12142 1.2631 1.2435 1.33634 1.16656 1.51552 1.52824 0.777664 1.10924 0.683984 0.680713 0.676975 0.585495 0.583474 0.54409
